#pragma once
namespace Eloquent {
    namespace ML {
        namespace Port {
            class RandomForest {
            public:
                /**
                * Predict class for features vector
                */
                int predict(float *x) {
                    uint8_t votes[4] = { 0 };
                    // tree #1
                    if (x[3] <= 3.1373707056045532) {
                        if (x[11] <= 1.4596323370933533) {
                            if (x[20] <= 0.4026571959257126) {
                                if (x[40] <= 0.2013285979628563) {
                                    if (x[2] <= 1.6106287837028503) {
                                        votes[3] += 1;
                                    }

                                    else {
                                        votes[1] += 1;
                                    }
                                }

                                else {
                                    votes[3] += 1;
                                }
                            }

                            else {
                                votes[2] += 1;
                            }
                        }

                        else {
                            if (x[35] <= 0.18455121666193008) {
                                votes[0] += 1;
                            }

                            else {
                                votes[0] += 1;
                            }
                        }
                    }

                    else {
                        votes[1] += 1;
                    }

                    // tree #2
                    if (x[19] <= 0.503321498632431) {
                        if (x[12] <= 1.006642997264862) {
                            if (x[2] <= 2.248169422149658) {
                                if (x[14] <= 0.31877027451992035) {
                                    votes[3] += 1;
                                }

                                else {
                                    votes[3] += 1;
                                }
                            }

                            else {
                                votes[1] += 1;
                            }
                        }

                        else {
                            if (x[31] <= 0.13421906530857086) {
                                votes[0] += 1;
                            }

                            else {
                                votes[0] += 1;
                            }
                        }
                    }

                    else {
                        if (x[9] <= 1.3254132866859436) {
                            votes[2] += 1;
                        }

                        else {
                            votes[2] += 1;
                        }
                    }

                    // tree #3
                    if (x[4] <= 3.0702611207962036) {
                        if (x[22] <= 0.3858798146247864) {
                            if (x[13] <= 0.8556465208530426) {
                                if (x[61] <= 0.05033215135335922) {
                                    if (x[2] <= 1.5435192584991455) {
                                        votes[3] += 1;
                                    }

                                    else {
                                        votes[3] += 1;
                                    }
                                }

                                else {
                                    votes[3] += 1;
                                }
                            }

                            else {
                                votes[0] += 1;
                            }
                        }

                        else {
                            if (x[10] <= 1.9797312021255493) {
                                votes[2] += 1;
                            }

                            else {
                                votes[1] += 1;
                            }
                        }
                    }

                    else {
                        votes[1] += 1;
                    }

                    // tree #4
                    if (x[2] <= 2.248169422149658) {
                        if (x[21] <= 0.4026571959257126) {
                            if (x[9] <= 1.560296654701233) {
                                if (x[13] <= 0.31877027451992035) {
                                    votes[3] += 1;
                                }

                                else {
                                    votes[3] += 1;
                                }
                            }

                            else {
                                if (x[31] <= 0.05033215135335922) {
                                    votes[0] += 1;
                                }

                                else {
                                    votes[3] += 1;
                                }
                            }
                        }

                        else {
                            if (x[11] <= 1.4428549408912659) {
                                votes[2] += 1;
                            }

                            else {
                                votes[1] += 1;
                            }
                        }
                    }

                    else {
                        if (x[3] <= 2.751490831375122) {
                            votes[1] += 1;
                        }

                        else {
                            votes[1] += 1;
                        }
                    }

                    // tree #5
                    if (x[32] <= 0.5536536574363708) {
                        if (x[10] <= 1.8958443403244019) {
                            if (x[14] <= 0.6207631826400757) {
                                if (x[25] <= 0.18455121666193008) {
                                    votes[3] += 1;
                                }

                                else {
                                    votes[3] += 1;
                                }
                            }

                            else {
                                votes[2] += 1;
                            }
                        }

                        else {
                            if (x[60] <= 0.13421906530857086) {
                                if (x[59] <= 0.05033215135335922) {
                                    votes[0] += 1;
                                }

                                else {
                                    votes[0] += 1;
                                }
                            }

                            else {
                                votes[1] += 1;
                            }
                        }
                    }

                    else {
                        if (x[37] <= 0.2348833680152893) {
                            votes[1] += 1;
                        }

                        else {
                            votes[1] += 1;
                        }
                    }

                    // tree #6
                    if (x[48] <= 0.3858798146247864) {
                        if (x[13] <= 0.5536536276340485) {
                            if (x[19] <= 0.13421906530857086) {
                                votes[1] += 1;
                            }

                            else {
                                if (x[31] <= 0.05033215135335922) {
                                    votes[3] += 1;
                                }

                                else {
                                    votes[3] += 1;
                                }
                            }
                        }

                        else {
                            if (x[8] <= 2.0636181235313416) {
                                votes[2] += 1;
                            }

                            else {
                                votes[0] += 1;
                            }
                        }
                    }

                    else {
                        if (x[40] <= 0.28521551191806793) {
                            votes[1] += 1;
                        }

                        else {
                            votes[1] += 1;
                        }
                    }

                    // tree #7
                    if (x[4] <= 3.0702611207962036) {
                        if (x[4] <= 1.526741862297058) {
                            if (x[21] <= 0.4194345623254776) {
                                votes[3] += 1;
                            }

                            else {
                                if (x[52] <= 0.13421906530857086) {
                                    votes[2] += 1;
                                }

                                else {
                                    votes[2] += 1;
                                }
                            }
                        }

                        else {
                            if (x[63] <= 0.13421906530857086) {
                                if (x[9] <= 1.4764097332954407) {
                                    votes[1] += 1;
                                }

                                else {
                                    votes[0] += 1;
                                }
                            }

                            else {
                                votes[3] += 1;
                            }
                        }
                    }

                    else {
                        votes[1] += 1;
                    }

                    // tree #8
                    if (x[4] <= 1.526741862297058) {
                        if (x[19] <= 0.2181059792637825) {
                            votes[3] += 1;
                        }

                        else {
                            if (x[28] <= 0.2516607493162155) {
                                votes[1] += 1;
                            }

                            else {
                                votes[2] += 1;
                            }
                        }
                    }

                    else {
                        if (x[5] <= 3.472918391227722) {
                            if (x[56] <= 0.30199289321899414) {
                                if (x[13] <= 0.503321498632431) {
                                    if (x[15] <= 0.13421906530857086) {
                                        votes[1] += 1;
                                    }

                                    else {
                                        if (x[62] <= 0.05033215135335922) {
                                            votes[0] += 1;
                                        }

                                        else {
                                            votes[3] += 1;
                                        }
                                    }
                                }

                                else {
                                    if (x[2] <= 2.6508264541625977) {
                                        votes[0] += 1;
                                    }

                                    else {
                                        votes[0] += 1;
                                    }
                                }
                            }

                            else {
                                votes[3] += 1;
                            }
                        }

                        else {
                            votes[1] += 1;
                        }
                    }

                    // tree #9
                    if (x[31] <= 0.5200988799333572) {
                        if (x[21] <= 0.4362119734287262) {
                            if (x[59] <= 0.2516607493162155) {
                                if (x[49] <= 0.2181059792637825) {
                                    if (x[0] <= 1.526741862297058) {
                                        if (x[32] <= 0.05033215135335922) {
                                            votes[0] += 1;
                                        }

                                        else {
                                            votes[3] += 1;
                                        }
                                    }

                                    else {
                                        votes[1] += 1;
                                    }
                                }

                                else {
                                    votes[0] += 1;
                                }
                            }

                            else {
                                votes[3] += 1;
                            }
                        }

                        else {
                            if (x[6] <= 1.5267419219017029) {
                                votes[2] += 1;
                            }

                            else {
                                votes[2] += 1;
                            }
                        }
                    }

                    else {
                        votes[1] += 1;
                    }

                    // tree #10
                    if (x[3] <= 3.120593309402466) {
                        if (x[19] <= 0.4529893398284912) {
                            if (x[3] <= 1.962953805923462) {
                                if (x[6] <= 2.1307276487350464) {
                                    if (x[4] <= 1.4260776042938232) {
                                        votes[3] += 1;
                                    }

                                    else {
                                        votes[3] += 1;
                                    }
                                }

                                else {
                                    votes[0] += 1;
                                }
                            }

                            else {
                                if (x[11] <= 1.3086358904838562) {
                                    votes[0] += 1;
                                }

                                else {
                                    votes[0] += 1;
                                }
                            }
                        }

                        else {
                            if (x[39] <= 0.4529893547296524) {
                                votes[2] += 1;
                            }

                            else {
                                votes[2] += 1;
                            }
                        }
                    }

                    else {
                        votes[1] += 1;
                    }

                    // tree #11
                    if (x[32] <= 0.48654410243034363) {
                        if (x[21] <= 0.48654410243034363) {
                            if (x[4] <= 2.030063271522522) {
                                if (x[12] <= 0.7549822330474854) {
                                    if (x[62] <= 0.05033215135335922) {
                                        votes[3] += 1;
                                    }

                                    else {
                                        votes[3] += 1;
                                    }
                                }

                                else {
                                    votes[0] += 1;
                                }
                            }

                            else {
                                if (x[30] <= 0.05033215135335922) {
                                    votes[0] += 1;
                                }

                                else {
                                    votes[1] += 1;
                                }
                            }
                        }

                        else {
                            if (x[50] <= 0.2013285979628563) {
                                votes[2] += 1;
                            }

                            else {
                                votes[1] += 1;
                            }
                        }
                    }

                    else {
                        if (x[19] <= 0.16777383536100388) {
                            votes[1] += 1;
                        }

                        else {
                            votes[1] += 1;
                        }
                    }

                    // tree #12
                    if (x[19] <= 0.4697667211294174) {
                        if (x[12] <= 1.342190682888031) {
                            if (x[1] <= 1.7448478937149048) {
                                if (x[9] <= 1.342190682888031) {
                                    votes[3] += 1;
                                }

                                else {
                                    votes[3] += 1;
                                }
                            }

                            else {
                                if (x[19] <= 0.18455121666193008) {
                                    votes[1] += 1;
                                }

                                else {
                                    votes[1] += 1;
                                }
                            }
                        }

                        else {
                            if (x[29] <= 0.13421906530857086) {
                                votes[0] += 1;
                            }

                            else {
                                votes[0] += 1;
                            }
                        }
                    }

                    else {
                        if (x[48] <= 0.15099645406007767) {
                            votes[2] += 1;
                        }

                        else {
                            votes[2] += 1;
                        }
                    }

                    // tree #13
                    if (x[50] <= 0.18455121666193008) {
                        if (x[19] <= 0.4697667211294174) {
                            if (x[25] <= 0.18455121666193008) {
                                if (x[16] <= 0.31877027451992035) {
                                    votes[1] += 1;
                                }

                                else {
                                    votes[0] += 1;
                                }
                            }

                            else {
                                if (x[16] <= 0.35232503712177277) {
                                    votes[3] += 1;
                                }

                                else {
                                    votes[3] += 1;
                                }
                            }
                        }

                        else {
                            votes[2] += 1;
                        }
                    }

                    else {
                        if (x[25] <= 0.2516607493162155) {
                            votes[0] += 1;
                        }

                        else {
                            if (x[1] <= 2.080395519733429) {
                                votes[1] += 1;
                            }

                            else {
                                votes[1] += 1;
                            }
                        }
                    }

                    // tree #14
                    if (x[20] <= 0.48654410243034363) {
                        if (x[53] <= 0.3858798146247864) {
                            if (x[15] <= 0.520098865032196) {
                                if (x[12] <= 0.9730882346630096) {
                                    if (x[21] <= 0.2181059867143631) {
                                        votes[3] += 1;
                                    }

                                    else {
                                        if (x[59] <= 0.18455121666193008) {
                                            votes[3] += 1;
                                        }

                                        else {
                                            votes[3] += 1;
                                        }
                                    }
                                }

                                else {
                                    votes[0] += 1;
                                }
                            }

                            else {
                                votes[0] += 1;
                            }
                        }

                        else {
                            votes[1] += 1;
                        }
                    }

                    else {
                        if (x[11] <= 1.4931870698928833) {
                            votes[2] += 1;
                        }

                        else {
                            votes[2] += 1;
                        }
                    }

                    // tree #15
                    if (x[5] <= 2.936042070388794) {
                        if (x[15] <= 0.520098865032196) {
                            if (x[48] <= 0.18455121666193008) {
                                if (x[18] <= 0.13421906530857086) {
                                    votes[3] += 1;
                                }

                                else {
                                    votes[3] += 1;
                                }
                            }

                            else {
                                votes[0] += 1;
                            }
                        }

                        else {
                            if (x[26] <= 0.2516607493162155) {
                                votes[0] += 1;
                            }

                            else {
                                if (x[42] <= 0.28521551191806793) {
                                    votes[2] += 1;
                                }

                                else {
                                    votes[2] += 1;
                                }
                            }
                        }
                    }

                    else {
                        votes[1] += 1;
                    }

                    // tree #16
                    if (x[1] <= 1.8455121517181396) {
                        if (x[13] <= 0.4529893547296524) {
                            votes[3] += 1;
                        }

                        else {
                            if (x[9] <= 1.4596323370933533) {
                                if (x[26] <= 0.31877027451992035) {
                                    votes[2] += 1;
                                }

                                else {
                                    votes[2] += 1;
                                }
                            }

                            else {
                                if (x[37] <= 0.31877027451992035) {
                                    votes[0] += 1;
                                }

                                else {
                                    votes[1] += 1;
                                }
                            }
                        }
                    }

                    else {
                        if (x[12] <= 0.9730882048606873) {
                            votes[1] += 1;
                        }

                        else {
                            if (x[30] <= 0.08388691395521164) {
                                votes[0] += 1;
                            }

                            else {
                                votes[1] += 1;
                            }
                        }
                    }

                    // tree #17
                    if (x[12] <= 0.87242391705513) {
                        if (x[20] <= 0.13421906530857086) {
                            if (x[31] <= 0.05033215135335922) {
                                votes[0] += 1;
                            }

                            else {
                                votes[1] += 1;
                            }
                        }

                        else {
                            if (x[2] <= 1.9965085983276367) {
                                votes[3] += 1;
                            }

                            else {
                                votes[3] += 1;
                            }
                        }
                    }

                    else {
                        if (x[9] <= 1.9797312021255493) {
                            votes[2] += 1;
                        }

                        else {
                            if (x[37] <= 0.35232503712177277) {
                                votes[0] += 1;
                            }

                            else {
                                votes[1] += 1;
                            }
                        }
                    }

                    // tree #18
                    if (x[2] <= 2.248169422149658) {
                        if (x[14] <= 0.6207631826400757) {
                            if (x[3] <= 1.895844280719757) {
                                votes[3] += 1;
                            }

                            else {
                                if (x[34] <= 0.05033215135335922) {
                                    votes[0] += 1;
                                }

                                else {
                                    votes[3] += 1;
                                }
                            }
                        }

                        else {
                            if (x[12] <= 1.4596323370933533) {
                                votes[2] += 1;
                            }

                            else {
                                votes[0] += 1;
                            }
                        }
                    }

                    else {
                        if (x[19] <= 0.18455121666193008) {
                            votes[1] += 1;
                        }

                        else {
                            votes[0] += 1;
                        }
                    }

                    // tree #19
                    if (x[5] <= 1.862289547920227) {
                        if (x[19] <= 0.2516607493162155) {
                            votes[3] += 1;
                        }

                        else {
                            if (x[36] <= 0.486544132232666) {
                                votes[2] += 1;
                            }

                            else {
                                votes[2] += 1;
                            }
                        }
                    }

                    else {
                        if (x[29] <= 0.2684381306171417) {
                            if (x[29] <= 0.18455121666193008) {
                                if (x[32] <= 0.05033215135335922) {
                                    votes[0] += 1;
                                }

                                else {
                                    if (x[13] <= 0.7717595994472504) {
                                        votes[1] += 1;
                                    }

                                    else {
                                        votes[0] += 1;
                                    }
                                }
                            }

                            else {
                                votes[3] += 1;
                            }
                        }

                        else {
                            votes[1] += 1;
                        }
                    }

                    // tree #20
                    if (x[19] <= 0.4697667211294174) {
                        if (x[4] <= 3.4729182720184326) {
                            if (x[63] <= 0.2516607493162155) {
                                if (x[9] <= 1.4764097332954407) {
                                    votes[1] += 1;
                                }

                                else {
                                    if (x[6] <= 2.751490831375122) {
                                        votes[0] += 1;
                                    }

                                    else {
                                        votes[0] += 1;
                                    }
                                }
                            }

                            else {
                                votes[3] += 1;
                            }
                        }

                        else {
                            votes[1] += 1;
                        }
                    }

                    else {
                        if (x[49] <= 0.18455121666193008) {
                            votes[2] += 1;
                        }

                        else {
                            votes[2] += 1;
                        }
                    }

                    // tree #21
                    if (x[5] <= 3.2548123598098755) {
                        if (x[11] <= 1.5770740509033203) {
                            if (x[15] <= 0.5536536276340485) {
                                if (x[3] <= 1.74484783411026) {
                                    votes[3] += 1;
                                }

                                else {
                                    if (x[29] <= 0.18455121666193008) {
                                        votes[0] += 1;
                                    }

                                    else {
                                        votes[3] += 1;
                                    }
                                }
                            }

                            else {
                                votes[2] += 1;
                            }
                        }

                        else {
                            if (x[34] <= 0.15099644660949707) {
                                votes[0] += 1;
                            }

                            else {
                                votes[0] += 1;
                            }
                        }
                    }

                    else {
                        if (x[5] <= 3.472918391227722) {
                            votes[1] += 1;
                        }

                        else {
                            votes[1] += 1;
                        }
                    }

                    // tree #22
                    if (x[5] <= 3.0702611207962036) {
                        if (x[26] <= 0.31877027451992035) {
                            if (x[9] <= 1.4764097332954407) {
                                if (x[12] <= 0.18455121666193008) {
                                    votes[1] += 1;
                                }

                                else {
                                    if (x[10] <= 0.8892013132572174) {
                                        votes[3] += 1;
                                    }

                                    else {
                                        votes[3] += 1;
                                    }
                                }
                            }

                            else {
                                if (x[25] <= 0.28521551191806793) {
                                    votes[0] += 1;
                                }

                                else {
                                    votes[0] += 1;
                                }
                            }
                        }

                        else {
                            if (x[53] <= 0.18455121666193008) {
                                votes[2] += 1;
                            }

                            else {
                                votes[0] += 1;
                            }
                        }
                    }

                    else {
                        if (x[61] <= 0.15099645406007767) {
                            votes[1] += 1;
                        }

                        else {
                            votes[1] += 1;
                        }
                    }

                    // tree #23
                    if (x[17] <= 0.5368762612342834) {
                        if (x[18] <= 0.13421906530857086) {
                            if (x[31] <= 0.05033215135335922) {
                                votes[0] += 1;
                            }

                            else {
                                if (x[5] <= 3.3051445484161377) {
                                    votes[1] += 1;
                                }

                                else {
                                    votes[1] += 1;
                                }
                            }
                        }

                        else {
                            if (x[9] <= 1.74484783411026) {
                                if (x[25] <= 0.15099645406007767) {
                                    votes[3] += 1;
                                }

                                else {
                                    votes[3] += 1;
                                }
                            }

                            else {
                                if (x[2] <= 2.6508264541625977) {
                                    votes[3] += 1;
                                }

                                else {
                                    votes[1] += 1;
                                }
                            }
                        }
                    }

                    else {
                        if (x[11] <= 1.4931870698928833) {
                            votes[2] += 1;
                        }

                        else {
                            votes[0] += 1;
                        }
                    }

                    // tree #24
                    if (x[16] <= 0.6039858162403107) {
                        if (x[30] <= 0.4697667360305786) {
                            if (x[9] <= 1.4428549408912659) {
                                if (x[47] <= 0.05033215135335922) {
                                    votes[3] += 1;
                                }

                                else {
                                    votes[3] += 1;
                                }
                            }

                            else {
                                if (x[12] <= 0.7549822330474854) {
                                    votes[1] += 1;
                                }

                                else {
                                    if (x[56] <= 0.13421906530857086) {
                                        votes[0] += 1;
                                    }

                                    else {
                                        votes[0] += 1;
                                    }
                                }
                            }
                        }

                        else {
                            votes[1] += 1;
                        }
                    }

                    else {
                        if (x[9] <= 1.9461764097213745) {
                            votes[2] += 1;
                        }

                        else {
                            votes[0] += 1;
                        }
                    }

                    // tree #25
                    if (x[32] <= 0.31877027451992035) {
                        if (x[16] <= 0.6039858162403107) {
                            if (x[48] <= 0.2181059867143631) {
                                if (x[51] <= 0.05033215135335922) {
                                    if (x[28] <= 0.05033215135335922) {
                                        votes[3] += 1;
                                    }

                                    else {
                                        votes[3] += 1;
                                    }
                                }

                                else {
                                    votes[1] += 1;
                                }
                            }

                            else {
                                votes[0] += 1;
                            }
                        }

                        else {
                            if (x[6] <= 2.0300633907318115) {
                                votes[2] += 1;
                            }

                            else {
                                votes[0] += 1;
                            }
                        }
                    }

                    else {
                        if (x[52] <= 0.4026571959257126) {
                            votes[1] += 1;
                        }

                        else {
                            votes[1] += 1;
                        }
                    }

                    // tree #26
                    if (x[1] <= 2.080395519733429) {
                        if (x[6] <= 1.5267419219017029) {
                            if (x[1] <= 1.1408620476722717) {
                                votes[1] += 1;
                            }

                            else {
                                votes[2] += 1;
                            }
                        }

                        else {
                            if (x[13] <= 0.7885369956493378) {
                                if (x[18] <= 0.2013285979628563) {
                                    votes[3] += 1;
                                }

                                else {
                                    votes[3] += 1;
                                }
                            }

                            else {
                                votes[0] += 1;
                            }
                        }
                    }

                    else {
                        if (x[13] <= 0.5704310238361359) {
                            votes[1] += 1;
                        }

                        else {
                            if (x[32] <= 0.33554767072200775) {
                                votes[0] += 1;
                            }

                            else {
                                votes[1] += 1;
                            }
                        }
                    }

                    // tree #27
                    if (x[18] <= 0.520098865032196) {
                        if (x[31] <= 0.13421906530857086) {
                            if (x[14] <= 0.30199289321899414) {
                                votes[3] += 1;
                            }

                            else {
                                if (x[20] <= 0.13421906530857086) {
                                    votes[0] += 1;
                                }

                                else {
                                    if (x[53] <= 0.15099645406007767) {
                                        votes[3] += 1;
                                    }

                                    else {
                                        votes[0] += 1;
                                    }
                                }
                            }
                        }

                        else {
                            if (x[4] <= 2.8857098817825317) {
                                votes[1] += 1;
                            }

                            else {
                                votes[1] += 1;
                            }
                        }
                    }

                    else {
                        if (x[12] <= 1.929399013519287) {
                            votes[2] += 1;
                        }

                        else {
                            votes[1] += 1;
                        }
                    }

                    // tree #28
                    if (x[28] <= 0.6207631826400757) {
                        if (x[10] <= 1.8958443403244019) {
                            if (x[16] <= 0.5368762612342834) {
                                if (x[4] <= 2.030063271522522) {
                                    if (x[14] <= 0.31877027451992035) {
                                        votes[3] += 1;
                                    }

                                    else {
                                        votes[3] += 1;
                                    }
                                }

                                else {
                                    votes[1] += 1;
                                }
                            }

                            else {
                                votes[2] += 1;
                            }
                        }

                        else {
                            if (x[4] <= 3.338699221611023) {
                                if (x[16] <= 0.7382048666477203) {
                                    votes[0] += 1;
                                }

                                else {
                                    votes[0] += 1;
                                }
                            }

                            else {
                                votes[1] += 1;
                            }
                        }
                    }

                    else {
                        votes[1] += 1;
                    }

                    // tree #29
                    if (x[5] <= 2.3991657495498657) {
                        if (x[26] <= 0.28521551191806793) {
                            if (x[6] <= 1.895844280719757) {
                                if (x[52] <= 0.05033215135335922) {
                                    votes[3] += 1;
                                }

                                else {
                                    votes[1] += 1;
                                }
                            }

                            else {
                                if (x[36] <= 0.05033215135335922) {
                                    votes[0] += 1;
                                }

                                else {
                                    votes[3] += 1;
                                }
                            }
                        }

                        else {
                            votes[2] += 1;
                        }
                    }

                    else {
                        if (x[31] <= 0.2181059792637825) {
                            if (x[22] <= 0.2181059792637825) {
                                votes[1] += 1;
                            }

                            else {
                                votes[0] += 1;
                            }
                        }

                        else {
                            votes[1] += 1;
                        }
                    }

                    // tree #30
                    if (x[14] <= 0.520098865032196) {
                        if (x[1] <= 1.8455121517181396) {
                            if (x[55] <= 0.05033215135335922) {
                                votes[3] += 1;
                            }

                            else {
                                votes[3] += 1;
                            }
                        }

                        else {
                            votes[1] += 1;
                        }
                    }

                    else {
                        if (x[51] <= 0.18455121666193008) {
                            if (x[4] <= 1.6106287837028503) {
                                votes[2] += 1;
                            }

                            else {
                                votes[0] += 1;
                            }
                        }

                        else {
                            if (x[25] <= 0.28521551191806793) {
                                if (x[52] <= 0.2516607493162155) {
                                    votes[0] += 1;
                                }

                                else {
                                    votes[0] += 1;
                                }
                            }

                            else {
                                votes[1] += 1;
                            }
                        }
                    }

                    // return argmax of votes
                    uint8_t classIdx = 0;
                    float maxVotes = votes[0];

                    for (uint8_t i = 1; i < 4; i++) {
                        if (votes[i] > maxVotes) {
                            classIdx = i;
                            maxVotes = votes[i];
                        }
                    }

                    return classIdx;
                }

                /**
                * Convert class idx to readable name
                */
                const char* predictLabel(float *x) {
                    switch (predict(x)) {
                        case 0:
                            return "no";
                        case 1:
                            return "stop";
                        case 2:
                            return "play";
                        case 3:
                            return "yes";
                        default:
                            return "Houston we have a problem";
                    }
                }

            protected:
            };
        }
    }
}
