#pragma once
namespace Eloquent {
    namespace ML {
        namespace Train {
            /**
            * A tailor made training set
            */
            class TrainSet {
            public:
                TrainSet() :
                        _x{
                                {   0.0  ,  0.0  ,  0.0  ,  0.0  ,  0.164675087238  ,  0.209586474666  ,  0.044911387429  ,  0.0  ,  0.0  ,  0.0  ,  0.0  ,  0.029940924952  ,  0.239527399619  ,  0.239527399619  ,  0.029940924952  ,  0.0  ,  0.0  ,  0.0  ,  0.0  ,  0.164675087238  ,  0.239527399619  ,  0.209586474666  ,  0.0  ,  0.0  ,  0.0  ,  0.0  ,  0.044911387429  ,  0.239527399619  ,  0.239527399619  ,  0.224556937143  ,  0.0  ,  0.0  ,  0.0  ,  0.014970462476  ,  0.19461601219  ,  0.239527399619  ,  0.239527399619  ,  0.19461601219  ,  0.0  ,  0.0  ,  0.0  ,  0.089822774857  ,  0.239527399619  ,  0.134734162286  ,  0.224556937143  ,  0.19461601219  ,  0.0  ,  0.0  ,  0.0  ,  0.0  ,  0.0  ,  0.0  ,  0.179645549714  ,  0.239527399619  ,  0.014970462476  ,  0.0  ,  0.0  ,  0.0  ,  0.0  ,  0.0  ,  0.134734162286  ,  0.209586474666  ,  0.014970462476  ,  0.0  },
                                {   0.0  ,  0.0  ,  0.090240359461  ,  0.234624934597  ,  0.162432647029  ,  0.018048071892  ,  0.0  ,  0.0  ,  0.0  ,  0.0  ,  0.234624934597  ,  0.270721078382  ,  0.180480718921  ,  0.270721078382  ,  0.090240359461  ,  0.0  ,  0.0  ,  0.054144215676  ,  0.270721078382  ,  0.036096143784  ,  0.0  ,  0.198528790813  ,  0.144384575137  ,  0.0  ,  0.0  ,  0.072192287568  ,  0.216576862705  ,  0.0  ,  0.0  ,  0.144384575137  ,  0.144384575137  ,  0.0  ,  0.0  ,  0.090240359461  ,  0.144384575137  ,  0.0  ,  0.0  ,  0.162432647029  ,  0.144384575137  ,  0.0  ,  0.0  ,  0.072192287568  ,  0.198528790813  ,  0.0  ,  0.018048071892  ,  0.216576862705  ,  0.126336503245  ,  0.0  ,  0.0  ,  0.036096143784  ,  0.25267300649  ,  0.090240359461  ,  0.180480718921  ,  0.216576862705  ,  0.0  ,  0.0  ,  0.0  ,  0.0  ,  0.108288431353  ,  0.234624934597  ,  0.180480718921  ,  0.0  ,  0.0  ,  0.0  },
                                {   0.0  ,  0.0  ,  0.02752148805  ,  0.206411160375  ,  0.178889672325  ,  0.0  ,  0.0  ,  0.0  ,  0.0  ,  0.0  ,  0.178889672325  ,  0.2201719044  ,  0.2201719044  ,  0.123846696225  ,  0.0  ,  0.0  ,  0.0  ,  0.068803720125  ,  0.2201719044  ,  0.123846696225  ,  0.08256446415  ,  0.2201719044  ,  0.0550429761  ,  0.0  ,  0.0  ,  0.068803720125  ,  0.2201719044  ,  0.041282232075  ,  0.013760744025  ,  0.19265041635  ,  0.096325208175  ,  0.0  ,  0.0  ,  0.08256446415  ,  0.2201719044  ,  0.0550429761  ,  0.0  ,  0.2201719044  ,  0.1100859522  ,  0.0  ,  0.0  ,  0.041282232075  ,  0.2201719044  ,  0.1651289283  ,  0.08256446415  ,  0.2201719044  ,  0.1651289283  ,  0.0  ,  0.0  ,  0.0  ,  0.19265041635  ,  0.2201719044  ,  0.2201719044  ,  0.2201719044  ,  0.0550429761  ,  0.0  ,  0.0  ,  0.0  ,  0.02752148805  ,  0.178889672325  ,  0.206411160375  ,  0.1100859522  ,  0.0  ,  0.0  },
                                {   0.0  ,  0.0  ,  0.0  ,  0.0  ,  0.189503567803  ,  0.233235160373  ,  0.08746318514  ,  0.0  ,  0.0  ,  0.0  ,  0.04373159257  ,  0.160349172756  ,  0.233235160373  ,  0.233235160373  ,  0.072885987616  ,  0.0  ,  0.0  ,  0.072885987616  ,  0.233235160373  ,  0.233235160373  ,  0.233235160373  ,  0.233235160373  ,  0.058308790093  ,  0.0  ,  0.0  ,  0.058308790093  ,  0.145771975233  ,  0.13119477771  ,  0.233235160373  ,  0.233235160373  ,  0.058308790093  ,  0.0  ,  0.0  ,  0.0  ,  0.0  ,  0.0  ,  0.189503567803  ,  0.233235160373  ,  0.058308790093  ,  0.0  ,  0.0  ,  0.0  ,  0.0  ,  0.0  ,  0.174926370279  ,  0.233235160373  ,  0.058308790093  ,  0.0  ,  0.0  ,  0.0  ,  0.0  ,  0.029154395047  ,  0.233235160373  ,  0.233235160373  ,  0.102040382663  ,  0.0  ,  0.0  ,  0.0  ,  0.0  ,  0.014577197523  ,  0.174926370279  ,  0.204080765326  ,  0.072885987616  ,  0.0  },
                                {   0.0  ,  0.0  ,  0.043815467838  ,  0.175261871351  ,  0.146051559459  ,  0.014605155946  ,  0.0  ,  0.0  ,  0.0  ,  0.014605155946  ,  0.233682495135  ,  0.233682495135  ,  0.233682495135  ,  0.146051559459  ,  0.0  ,  0.0  ,  0.0  ,  0.07302577973  ,  0.233682495135  ,  0.189867027297  ,  0.087630935676  ,  0.233682495135  ,  0.014605155946  ,  0.0  ,  0.0  ,  0.07302577973  ,  0.233682495135  ,  0.102236091621  ,  0.0  ,  0.189867027297  ,  0.043815467838  ,  0.0  ,  0.0  ,  0.07302577973  ,  0.233682495135  ,  0.058420623784  ,  0.0  ,  0.189867027297  ,  0.102236091621  ,  0.0  ,  0.0  ,  0.014605155946  ,  0.233682495135  ,  0.116841247567  ,  0.0  ,  0.204472183243  ,  0.102236091621  ,  0.0  ,  0.0  ,  0.0  ,  0.189867027297  ,  0.204472183243  ,  0.189867027297  ,  0.233682495135  ,  0.043815467838  ,  0.0  ,  0.0  ,  0.0  ,  0.029210311892  ,  0.189867027297  ,  0.219077339189  ,  0.087630935676  ,  0.0  ,  0.0  },
                                {   0.0  ,  0.0  ,  0.0  ,  0.079255328119  ,  0.253617049979  ,  0.12680852499  ,  0.0  ,  0.0  ,  0.0  ,  0.0  ,  0.063404262495  ,  0.253617049979  ,  0.253617049979  ,  0.12680852499  ,  0.0  ,  0.0  ,  0.0  ,  0.031702131247  ,  0.237765984356  ,  0.253617049979  ,  0.253617049979  ,  0.12680852499  ,  0.0  ,  0.0  ,  0.0  ,  0.063404262495  ,  0.12680852499  ,  0.190212787484  ,  0.253617049979  ,  0.079255328119  ,  0.0  ,  0.0  ,  0.0  ,  0.0  ,  0.0  ,  0.095106393742  ,  0.253617049979  ,  0.174361721861  ,  0.0  ,  0.0  ,  0.0  ,  0.0  ,  0.0  ,  0.095106393742  ,  0.253617049979  ,  0.190212787484  ,  0.0  ,  0.0  ,  0.0  ,  0.0  ,  0.0  ,  0.095106393742  ,  0.253617049979  ,  0.237765984356  ,  0.015851065624  ,  0.0  ,  0.0  ,  0.0  ,  0.0  ,  0.063404262495  ,  0.237765984356  ,  0.174361721861  ,  0.031702131247  ,  0.0  },
                                {   0.0  ,  0.0  ,  0.066927448141  ,  0.217514206458  ,  0.133854896282  ,  0.0  ,  0.0  ,  0.0  ,  0.0  ,  0.0  ,  0.217514206458  ,  0.267709792564  ,  0.250977930529  ,  0.117123034247  ,  0.0  ,  0.0  ,  0.0  ,  0.050195586106  ,  0.267709792564  ,  0.150586758317  ,  0.100391172212  ,  0.250977930529  ,  0.100391172212  ,  0.0  ,  0.0  ,  0.133854896282  ,  0.234246068494  ,  0.0  ,  0.0  ,  0.066927448141  ,  0.133854896282  ,  0.0  ,  0.0  ,  0.133854896282  ,  0.200782344423  ,  0.0  ,  0.0  ,  0.066927448141  ,  0.133854896282  ,  0.0  ,  0.0  ,  0.066927448141  ,  0.200782344423  ,  0.0  ,  0.0  ,  0.184050482388  ,  0.100391172212  ,  0.0  ,  0.0  ,  0.0  ,  0.234246068494  ,  0.167318620353  ,  0.200782344423  ,  0.234246068494  ,  0.016731862035  ,  0.0  ,  0.0  ,  0.0  ,  0.117123034247  ,  0.250977930529  ,  0.184050482388  ,  0.033463724071  ,  0.0  ,  0.0  },
                                {   0.0  ,  0.0  ,  0.11990802422  ,  0.256945766185  ,  0.154167459711  ,  0.085648588728  ,  0.0  ,  0.0  ,  0.0  ,  0.0  ,  0.23981604844  ,  0.274075483931  ,  0.23981604844  ,  0.256945766185  ,  0.0  ,  0.0  ,  0.0  ,  0.017129717746  ,  0.274075483931  ,  0.137037741966  ,  0.068518870983  ,  0.102778306474  ,  0.068518870983  ,  0.0  ,  0.0  ,  0.068518870983  ,  0.256945766185  ,  0.017129717746  ,  0.0  ,  0.102778306474  ,  0.085648588728  ,  0.0  ,  0.0  ,  0.051389153237  ,  0.188426895203  ,  0.0  ,  0.0  ,  0.11990802422  ,  0.085648588728  ,  0.0  ,  0.0  ,  0.051389153237  ,  0.188426895203  ,  0.0  ,  0.017129717746  ,  0.222686330694  ,  0.034259435491  ,  0.0  ,  0.0  ,  0.017129717746  ,  0.222686330694  ,  0.137037741966  ,  0.222686330694  ,  0.222686330694  ,  0.0  ,  0.0  ,  0.0  ,  0.0  ,  0.102778306474  ,  0.256945766185  ,  0.188426895203  ,  0.017129717746  ,  0.0  ,  0.0  },
                                {   0.0  ,  0.0  ,  0.016620562383  ,  0.149585061446  ,  0.249308435743  ,  0.182826186211  ,  0.0  ,  0.0  ,  0.0  ,  0.0  ,  0.182826186211  ,  0.265928998126  ,  0.132964499063  ,  0.23268787336  ,  0.099723374297  ,  0.0  ,  0.0  ,  0.033241124766  ,  0.265928998126  ,  0.166205623829  ,  0.0  ,  0.149585061446  ,  0.149585061446  ,  0.0  ,  0.0  ,  0.016620562383  ,  0.265928998126  ,  0.066482249531  ,  0.0  ,  0.132964499063  ,  0.132964499063  ,  0.0  ,  0.0  ,  0.066482249531  ,  0.265928998126  ,  0.066482249531  ,  0.0  ,  0.132964499063  ,  0.132964499063  ,  0.0  ,  0.0  ,  0.016620562383  ,  0.265928998126  ,  0.083102811914  ,  0.016620562383  ,  0.182826186211  ,  0.049861687149  ,  0.0  ,  0.0  ,  0.0  ,  0.199446748594  ,  0.199446748594  ,  0.166205623829  ,  0.166205623829  ,  0.0  ,  0.0  ,  0.0  ,  0.0  ,  0.016620562383  ,  0.166205623829  ,  0.216067310977  ,  0.049861687149  ,  0.0  ,  0.0  },
                                {   0.0  ,  0.0  ,  0.062522900764  ,  0.187568702292  ,  0.15630725191  ,  0.015630725191  ,  0.0  ,  0.0  ,  0.0  ,  0.046892175573  ,  0.250091603057  ,  0.203199427483  ,  0.234460877865  ,  0.15630725191  ,  0.0  ,  0.0  ,  0.0  ,  0.078153625955  ,  0.250091603057  ,  0.031261450382  ,  0.015630725191  ,  0.218830152674  ,  0.046892175573  ,  0.0  ,  0.0  ,  0.125045801528  ,  0.203199427483  ,  0.0  ,  0.0  ,  0.15630725191  ,  0.125045801528  ,  0.0  ,  0.0  ,  0.125045801528  ,  0.187568702292  ,  0.0  ,  0.0  ,  0.125045801528  ,  0.125045801528  ,  0.0  ,  0.0  ,  0.125045801528  ,  0.218830152674  ,  0.0  ,  0.0  ,  0.171937977101  ,  0.125045801528  ,  0.0  ,  0.0  ,  0.046892175573  ,  0.250091603057  ,  0.218830152674  ,  0.203199427483  ,  0.250091603057  ,  0.031261450382  ,  0.0  ,  0.0  ,  0.0  ,  0.125045801528  ,  0.250091603057  ,  0.203199427483  ,  0.078153625955  ,  0.0  ,  0.0  },
                                {   0.0  ,  0.0  ,  0.0  ,  0.0  ,  0.245049014705  ,  0.122524507352  ,  0.0  ,  0.0  ,  0.0  ,  0.0  ,  0.0  ,  0.227545513655  ,  0.280056016806  ,  0.157531509453  ,  0.0  ,  0.0  ,  0.0  ,  0.0  ,  0.175035010504  ,  0.280056016806  ,  0.280056016806  ,  0.122524507352  ,  0.0  ,  0.0  ,  0.0  ,  0.122524507352  ,  0.280056016806  ,  0.140028008403  ,  0.280056016806  ,  0.035007002101  ,  0.0  ,  0.0  ,  0.0  ,  0.01750350105  ,  0.087517505252  ,  0.105021006302  ,  0.280056016806  ,  0.105021006302  ,  0.0  ,  0.0  ,  0.0  ,  0.0  ,  0.0  ,  0.070014004201  ,  0.280056016806  ,  0.105021006302  ,  0.0  ,  0.0  ,  0.0  ,  0.0  ,  0.0  ,  0.035007002101  ,  0.280056016806  ,  0.105021006302  ,  0.0  ,  0.0  ,  0.0  ,  0.0  ,  0.0  ,  0.0  ,  0.210042012604  ,  0.192538511554  ,  0.0  ,  0.0  },
                                {   0.0  ,  0.0  ,  0.028771766882  ,  0.201402368177  ,  0.215788251618  ,  0.071929417206  ,  0.0  ,  0.0  ,  0.0  ,  0.0  ,  0.143858834412  ,  0.230174135059  ,  0.230174135059  ,  0.215788251618  ,  0.014385883441  ,  0.0  ,  0.0  ,  0.043157650324  ,  0.230174135059  ,  0.143858834412  ,  0.143858834412  ,  0.230174135059  ,  0.057543533765  ,  0.0  ,  0.0  ,  0.071929417206  ,  0.230174135059  ,  0.0  ,  0.0  ,  0.201402368177  ,  0.086315300647  ,  0.0  ,  0.0  ,  0.071929417206  ,  0.230174135059  ,  0.086315300647  ,  0.0  ,  0.172630601295  ,  0.100701184088  ,  0.0  ,  0.0  ,  0.014385883441  ,  0.215788251618  ,  0.187016484736  ,  0.057543533765  ,  0.187016484736  ,  0.086315300647  ,  0.0  ,  0.0  ,  0.0  ,  0.158244717853  ,  0.230174135059  ,  0.230174135059  ,  0.215788251618  ,  0.0  ,  0.0  ,  0.0  ,  0.0  ,  0.028771766882  ,  0.158244717853  ,  0.187016484736  ,  0.057543533765  ,  0.0  ,  0.0  },
                                {   0.0  ,  0.0  ,  0.067593030842  ,  0.219677350236  ,  0.185880834815  ,  0.118287803973  ,  0.0  ,  0.0  ,  0.0  ,  0.0  ,  0.236575607947  ,  0.270372123367  ,  0.219677350236  ,  0.270372123367  ,  0.033796515421  ,  0.0  ,  0.0  ,  0.084491288552  ,  0.270372123367  ,  0.067593030842  ,  0.0  ,  0.084491288552  ,  0.118287803973  ,  0.0  ,  0.0  ,  0.135186061684  ,  0.236575607947  ,  0.0  ,  0.0  ,  0.067593030842  ,  0.135186061684  ,  0.0  ,  0.0  ,  0.101389546263  ,  0.152084319394  ,  0.0  ,  0.0  ,  0.067593030842  ,  0.135186061684  ,  0.0  ,  0.0  ,  0.033796515421  ,  0.236575607947  ,  0.01689825771  ,  0.0  ,  0.135186061684  ,  0.101389546263  ,  0.0  ,  0.0  ,  0.0  ,  0.219677350236  ,  0.202779092526  ,  0.152084319394  ,  0.253473865657  ,  0.033796515421  ,  0.0  ,  0.0  ,  0.0  ,  0.050694773131  ,  0.270372123367  ,  0.202779092526  ,  0.084491288552  ,  0.0  ,  0.0  },
                                {   0.0  ,  0.0  ,  0.0  ,  0.01748743542  ,  0.192361789615  ,  0.157386918776  ,  0.0  ,  0.0  ,  0.0  ,  0.0  ,  0.0  ,  0.122412047937  ,  0.279798966713  ,  0.227336660454  ,  0.0  ,  0.0  ,  0.0  ,  0.0  ,  0.069949741678  ,  0.244824095874  ,  0.279798966713  ,  0.157386918776  ,  0.0  ,  0.0  ,  0.0  ,  0.174874354196  ,  0.279798966713  ,  0.192361789615  ,  0.279798966713  ,  0.139899483357  ,  0.0  ,  0.0  ,  0.0  ,  0.0  ,  0.0  ,  0.052462306259  ,  0.279798966713  ,  0.104924612517  ,  0.0  ,  0.0  ,  0.0  ,  0.0  ,  0.0  ,  0.052462306259  ,  0.279798966713  ,  0.139899483357  ,  0.0  ,  0.0  ,  0.0  ,  0.0  ,  0.0  ,  0.087437177098  ,  0.279798966713  ,  0.174874354196  ,  0.0  ,  0.0  ,  0.0  ,  0.0  ,  0.0  ,  0.034974870839  ,  0.244824095874  ,  0.104924612517  ,  0.0  ,  0.0  },
                                {   0.0  ,  0.0  ,  0.086516067526  ,  0.259548202577  ,  0.207638562062  ,  0.138425708041  ,  0.0  ,  0.0  ,  0.0  ,  0.0  ,  0.224941775567  ,  0.276851416082  ,  0.173032135051  ,  0.224941775567  ,  0.051909640515  ,  0.0  ,  0.0  ,  0.086516067526  ,  0.276851416082  ,  0.155728921546  ,  0.0  ,  0.138425708041  ,  0.069212854021  ,  0.0  ,  0.0  ,  0.069212854021  ,  0.224941775567  ,  0.017303213505  ,  0.0  ,  0.069212854021  ,  0.138425708041  ,  0.0  ,  0.0  ,  0.069212854021  ,  0.138425708041  ,  0.0  ,  0.0  ,  0.138425708041  ,  0.069212854021  ,  0.0  ,  0.0  ,  0.017303213505  ,  0.242244989072  ,  0.0  ,  0.0  ,  0.190335348557  ,  0.051909640515  ,  0.0  ,  0.0  ,  0.0  ,  0.207638562062  ,  0.155728921546  ,  0.155728921546  ,  0.259548202577  ,  0.0  ,  0.0  ,  0.0  ,  0.0  ,  0.069212854021  ,  0.242244989072  ,  0.259548202577  ,  0.069212854021  ,  0.0  ,  0.0  },
                                {   0.0  ,  0.0  ,  0.028082797815  ,  0.168496786891  ,  0.168496786891  ,  0.028082797815  ,  0.0  ,  0.0  ,  0.0  ,  0.0  ,  0.140413989075  ,  0.224662382521  ,  0.224662382521  ,  0.126372590168  ,  0.0  ,  0.0  ,  0.0  ,  0.042124196723  ,  0.224662382521  ,  0.224662382521  ,  0.11233119126  ,  0.210620983613  ,  0.042124196723  ,  0.0  ,  0.0  ,  0.084248393445  ,  0.224662382521  ,  0.084248393445  ,  0.0  ,  0.182538185798  ,  0.11233119126  ,  0.0  ,  0.0  ,  0.11233119126  ,  0.224662382521  ,  0.05616559563  ,  0.0  ,  0.210620983613  ,  0.11233119126  ,  0.0  ,  0.0  ,  0.070206994538  ,  0.224662382521  ,  0.11233119126  ,  0.168496786891  ,  0.224662382521  ,  0.084248393445  ,  0.0  ,  0.0  ,  0.0  ,  0.210620983613  ,  0.224662382521  ,  0.224662382521  ,  0.210620983613  ,  0.028082797815  ,  0.0  ,  0.0  ,  0.0  ,  0.042124196723  ,  0.182538185798  ,  0.168496786891  ,  0.042124196723  ,  0.0  ,  0.0  },
                                {   0.0  ,  0.0  ,  0.091744835277  ,  0.214071282314  ,  0.152908058796  ,  0.030581611759  ,  0.0  ,  0.0  ,  0.0  ,  0.0  ,  0.229362088194  ,  0.229362088194  ,  0.198780476435  ,  0.229362088194  ,  0.045872417639  ,  0.0  ,  0.0  ,  0.030581611759  ,  0.244652894073  ,  0.152908058796  ,  0.0  ,  0.198780476435  ,  0.137617252916  ,  0.0  ,  0.0  ,  0.01529080588  ,  0.244652894073  ,  0.076454029398  ,  0.0  ,  0.183489670555  ,  0.076454029398  ,  0.0  ,  0.0  ,  0.0  ,  0.244652894073  ,  0.045872417639  ,  0.0  ,  0.198780476435  ,  0.091744835277  ,  0.0  ,  0.0  ,  0.01529080588  ,  0.229362088194  ,  0.076454029398  ,  0.091744835277  ,  0.198780476435  ,  0.01529080588  ,  0.0  ,  0.0  ,  0.0  ,  0.244652894073  ,  0.168198864675  ,  0.214071282314  ,  0.152908058796  ,  0.0  ,  0.0  ,  0.0  ,  0.0  ,  0.107035641157  ,  0.244652894073  ,  0.168198864675  ,  0.01529080588  ,  0.0  ,  0.0  },
                                {   0.0  ,  0.0  ,  0.015174174893  ,  0.227612623402  ,  0.197264273615  ,  0.0  ,  0.0  ,  0.0  ,  0.0  ,  0.0  ,  0.015174174893  ,  0.242786798296  ,  0.242786798296  ,  0.075870874467  ,  0.0  ,  0.0  ,  0.0  ,  0.0  ,  0.106219224254  ,  0.242786798296  ,  0.242786798296  ,  0.0  ,  0.0  ,  0.0  ,  0.0  ,  0.0  ,  0.197264273615  ,  0.242786798296  ,  0.197264273615  ,  0.0  ,  0.0  ,  0.0  ,  0.0  ,  0.106219224254  ,  0.242786798296  ,  0.242786798296  ,  0.197264273615  ,  0.0  ,  0.0  ,  0.0  ,  0.0  ,  0.015174174893  ,  0.166915923828  ,  0.242786798296  ,  0.197264273615  ,  0.0  ,  0.0  ,  0.0  ,  0.0  ,  0.0  ,  0.030348349787  ,  0.242786798296  ,  0.242786798296  ,  0.0  ,  0.0  ,  0.0  ,  0.0  ,  0.0  ,  0.015174174893  ,  0.212438448509  ,  0.242786798296  ,  0.04552252468  ,  0.0  ,  0.0  },
                                {   0.0  ,  0.0  ,  0.032530002432  ,  0.243975018237  ,  0.162650012158  ,  0.016265001216  ,  0.0  ,  0.0  ,  0.0  ,  0.032530002432  ,  0.211445015806  ,  0.19518001459  ,  0.227710017021  ,  0.146385010942  ,  0.0  ,  0.0  ,  0.0  ,  0.097590007295  ,  0.260240019453  ,  0.016265001216  ,  0.016265001216  ,  0.227710017021  ,  0.032530002432  ,  0.0  ,  0.0  ,  0.130120009726  ,  0.260240019453  ,  0.0  ,  0.0  ,  0.162650012158  ,  0.081325006079  ,  0.0  ,  0.0  ,  0.130120009726  ,  0.227710017021  ,  0.032530002432  ,  0.0  ,  0.130120009726  ,  0.130120009726  ,  0.0  ,  0.0  ,  0.097590007295  ,  0.227710017021  ,  0.0  ,  0.0  ,  0.130120009726  ,  0.130120009726  ,  0.0  ,  0.0  ,  0.016265001216  ,  0.227710017021  ,  0.19518001459  ,  0.130120009726  ,  0.243975018237  ,  0.097590007295  ,  0.0  ,  0.0  ,  0.0  ,  0.048795003647  ,  0.211445015806  ,  0.260240019453  ,  0.130120009726  ,  0.016265001216  ,  0.0  },
                                {   0.0  ,  0.0  ,  0.141160190075  ,  0.235266983458  ,  0.078422327819  ,  0.0  ,  0.0  ,  0.0  ,  0.0  ,  0.047053396692  ,  0.235266983458  ,  0.235266983458  ,  0.250951449022  ,  0.062737862256  ,  0.0  ,  0.0  ,  0.0  ,  0.156844655639  ,  0.219582517894  ,  0.0  ,  0.141160190075  ,  0.219582517894  ,  0.0  ,  0.0  ,  0.0  ,  0.125475724511  ,  0.188213586767  ,  0.0  ,  0.0  ,  0.188213586767  ,  0.078422327819  ,  0.0  ,  0.0  ,  0.125475724511  ,  0.125475724511  ,  0.0  ,  0.0  ,  0.156844655639  ,  0.125475724511  ,  0.0  ,  0.0  ,  0.078422327819  ,  0.219582517894  ,  0.0  ,  0.0  ,  0.188213586767  ,  0.125475724511  ,  0.0  ,  0.0  ,  0.0  ,  0.250951449022  ,  0.109791258947  ,  0.188213586767  ,  0.250951449022  ,  0.062737862256  ,  0.0  ,  0.0  ,  0.0  ,  0.141160190075  ,  0.250951449022  ,  0.235266983458  ,  0.109791258947  ,  0.0  ,  0.0  },
                                {   0.0  ,  0.0  ,  0.0  ,  0.02968260886  ,  0.237460870878  ,  0.237460870878  ,  0.02968260886  ,  0.0  ,  0.0  ,  0.0  ,  0.0  ,  0.05936521772  ,  0.237460870878  ,  0.237460870878  ,  0.02968260886  ,  0.0  ,  0.0  ,  0.01484130443  ,  0.05936521772  ,  0.178095653159  ,  0.237460870878  ,  0.178095653159  ,  0.0  ,  0.0  ,  0.0  ,  0.103889131009  ,  0.237460870878  ,  0.237460870878  ,  0.237460870878  ,  0.178095653159  ,  0.0  ,  0.0  ,  0.0  ,  0.0  ,  0.04452391329  ,  0.148413044299  ,  0.237460870878  ,  0.207778262018  ,  0.0  ,  0.0  ,  0.0  ,  0.0  ,  0.0  ,  0.118730435439  ,  0.237460870878  ,  0.178095653159  ,  0.0  ,  0.0  ,  0.0  ,  0.0  ,  0.0  ,  0.089047826579  ,  0.237460870878  ,  0.237460870878  ,  0.02968260886  ,  0.0  ,  0.0  ,  0.0  ,  0.0  ,  0.02968260886  ,  0.178095653159  ,  0.222619566448  ,  0.05936521772  ,  0.0  },
                                {   0.0  ,  0.0  ,  0.01563645668  ,  0.2345468502  ,  0.17200102348  ,  0.01563645668  ,  0.0  ,  0.0  ,  0.0  ,  0.0  ,  0.03127291336  ,  0.25018330688  ,  0.25018330688  ,  0.10945519676  ,  0.0  ,  0.0  ,  0.0  ,  0.0  ,  0.09381874008  ,  0.25018330688  ,  0.25018330688  ,  0.0781822834  ,  0.0  ,  0.0  ,  0.0  ,  0.0  ,  0.12509165344  ,  0.25018330688  ,  0.25018330688  ,  0.06254582672  ,  0.0  ,  0.0  ,  0.0  ,  0.0  ,  0.14072811012  ,  0.25018330688  ,  0.20327393684  ,  0.0  ,  0.0  ,  0.0  ,  0.0  ,  0.0  ,  0.17200102348  ,  0.25018330688  ,  0.20327393684  ,  0.0  ,  0.0  ,  0.0  ,  0.0  ,  0.0  ,  0.17200102348  ,  0.25018330688  ,  0.17200102348  ,  0.0  ,  0.0  ,  0.0  ,  0.0  ,  0.0  ,  0.01563645668  ,  0.21891039352  ,  0.25018330688  ,  0.04690937004  ,  0.0  ,  0.0  },
                                {   0.0  ,  0.0  ,  0.030682209438  ,  0.184093256628  ,  0.061364418876  ,  0.0  ,  0.0  ,  0.0  ,  0.0  ,  0.015341104719  ,  0.184093256628  ,  0.245457675504  ,  0.245457675504  ,  0.046023314157  ,  0.0  ,  0.0  ,  0.0  ,  0.107387733033  ,  0.245457675504  ,  0.092046628314  ,  0.061364418876  ,  0.199434361347  ,  0.0  ,  0.0  ,  0.0  ,  0.122728837752  ,  0.245457675504  ,  0.092046628314  ,  0.0  ,  0.199434361347  ,  0.076705523595  ,  0.0  ,  0.0  ,  0.015341104719  ,  0.245457675504  ,  0.076705523595  ,  0.0  ,  0.107387733033  ,  0.138069942471  ,  0.0  ,  0.0  ,  0.0  ,  0.245457675504  ,  0.122728837752  ,  0.0  ,  0.122728837752  ,  0.184093256628  ,  0.0  ,  0.0  ,  0.0  ,  0.199434361347  ,  0.214775466066  ,  0.214775466066  ,  0.245457675504  ,  0.15341104719  ,  0.0  ,  0.0  ,  0.0  ,  0.061364418876  ,  0.214775466066  ,  0.230116570785  ,  0.107387733033  ,  0.0  ,  0.0  },
                                {   0.0  ,  0.0  ,  0.0  ,  0.0  ,  0.108128258809  ,  0.200809623503  ,  0.077234470578  ,  0.0  ,  0.0  ,  0.0  ,  0.0  ,  0.0  ,  0.231703411734  ,  0.24715030585  ,  0.123575152925  ,  0.0  ,  0.0  ,  0.0  ,  0.015446894116  ,  0.200809623503  ,  0.24715030585  ,  0.24715030585  ,  0.046340682347  ,  0.0  ,  0.0  ,  0.0  ,  0.185362729387  ,  0.24715030585  ,  0.24715030585  ,  0.24715030585  ,  0.0  ,  0.0  ,  0.0  ,  0.123575152925  ,  0.24715030585  ,  0.046340682347  ,  0.24715030585  ,  0.200809623503  ,  0.0  ,  0.0  ,  0.0  ,  0.030893788231  ,  0.046340682347  ,  0.0  ,  0.24715030585  ,  0.185362729387  ,  0.0  ,  0.0  ,  0.0  ,  0.0  ,  0.0  ,  0.0  ,  0.24715030585  ,  0.200809623503  ,  0.0  ,  0.0  ,  0.0  ,  0.0  ,  0.0  ,  0.0  ,  0.123575152925  ,  0.185362729387  ,  0.0  ,  0.0  },
                                {   0.0  ,  0.0  ,  0.049930699897  ,  0.233009932855  ,  0.116504966427  ,  0.0  ,  0.0  ,  0.0  ,  0.0  ,  0.0  ,  0.233009932855  ,  0.266297066119  ,  0.233009932855  ,  0.149792099692  ,  0.0  ,  0.0  ,  0.0  ,  0.06657426653  ,  0.266297066119  ,  0.266297066119  ,  0.183079232957  ,  0.249653499487  ,  0.049930699897  ,  0.0  ,  0.0  ,  0.083217833162  ,  0.249653499487  ,  0.099861399795  ,  0.0  ,  0.06657426653  ,  0.13314853306  ,  0.0  ,  0.0  ,  0.13314853306  ,  0.13314853306  ,  0.0  ,  0.0  ,  0.06657426653  ,  0.13314853306  ,  0.0  ,  0.0  ,  0.083217833162  ,  0.183079232957  ,  0.0  ,  0.0  ,  0.099861399795  ,  0.099861399795  ,  0.0  ,  0.0  ,  0.0  ,  0.216366366222  ,  0.166435666325  ,  0.083217833162  ,  0.249653499487  ,  0.083217833162  ,  0.0  ,  0.0  ,  0.0  ,  0.033287133265  ,  0.19972279959  ,  0.233009932855  ,  0.13314853306  ,  0.0  ,  0.0  },
                                {   0.0  ,  0.0  ,  0.063532093799  ,  0.222362328296  ,  0.174713257947  ,  0.0  ,  0.0  ,  0.0  ,  0.0  ,  0.047649070349  ,  0.238245351746  ,  0.238245351746  ,  0.254128375196  ,  0.142947211048  ,  0.0  ,  0.0  ,  0.0  ,  0.127064187598  ,  0.206479304847  ,  0.0  ,  0.047649070349  ,  0.238245351746  ,  0.01588302345  ,  0.0  ,  0.0  ,  0.127064187598  ,  0.190596281397  ,  0.0  ,  0.0  ,  0.127064187598  ,  0.095298140698  ,  0.0  ,  0.0  ,  0.127064187598  ,  0.190596281397  ,  0.0  ,  0.0  ,  0.127064187598  ,  0.127064187598  ,  0.0  ,  0.0  ,  0.079415117249  ,  0.206479304847  ,  0.01588302345  ,  0.0  ,  0.127064187598  ,  0.127064187598  ,  0.0  ,  0.0  ,  0.031766046899  ,  0.238245351746  ,  0.222362328296  ,  0.190596281397  ,  0.238245351746  ,  0.095298140698  ,  0.0  ,  0.0  ,  0.0  ,  0.079415117249  ,  0.254128375196  ,  0.238245351746  ,  0.127064187598  ,  0.0  ,  0.0  },
                                {   0.0  ,  0.0  ,  0.0  ,  0.0  ,  0.196906610471  ,  0.131271073647  ,  0.0  ,  0.0  ,  0.0  ,  0.0  ,  0.0  ,  0.049226652618  ,  0.262542147295  ,  0.262542147295  ,  0.0  ,  0.0  ,  0.0  ,  0.0  ,  0.016408884206  ,  0.213315494677  ,  0.262542147295  ,  0.180497726265  ,  0.0  ,  0.0  ,  0.0  ,  0.049226652618  ,  0.246133263089  ,  0.262542147295  ,  0.262542147295  ,  0.131271073647  ,  0.0  ,  0.0  ,  0.0  ,  0.0  ,  0.049226652618  ,  0.114862189441  ,  0.262542147295  ,  0.131271073647  ,  0.0  ,  0.0  ,  0.0  ,  0.0  ,  0.0  ,  0.065635536824  ,  0.262542147295  ,  0.131271073647  ,  0.0  ,  0.0  ,  0.0  ,  0.0  ,  0.0  ,  0.065635536824  ,  0.262542147295  ,  0.229724378883  ,  0.0  ,  0.0  ,  0.0  ,  0.0  ,  0.0  ,  0.0  ,  0.229724378883  ,  0.246133263089  ,  0.08204442103  ,  0.0  },
                                {   0.0  ,  0.0  ,  0.046743944617  ,  0.186975778467  ,  0.171394463595  ,  0.015581314872  ,  0.0  ,  0.0  ,  0.0  ,  0.015581314872  ,  0.218138408212  ,  0.218138408212  ,  0.233719723084  ,  0.124650518978  ,  0.0  ,  0.0  ,  0.0  ,  0.046743944617  ,  0.249301037956  ,  0.031162629745  ,  0.077906574361  ,  0.249301037956  ,  0.015581314872  ,  0.0  ,  0.0  ,  0.062325259489  ,  0.249301037956  ,  0.0  ,  0.0  ,  0.218138408212  ,  0.093487889234  ,  0.0  ,  0.0  ,  0.062325259489  ,  0.249301037956  ,  0.0  ,  0.0  ,  0.171394463595  ,  0.124650518978  ,  0.0  ,  0.0  ,  0.046743944617  ,  0.249301037956  ,  0.031162629745  ,  0.0  ,  0.155813148723  ,  0.124650518978  ,  0.0  ,  0.0  ,  0.0  ,  0.155813148723  ,  0.233719723084  ,  0.20255709334  ,  0.249301037956  ,  0.046743944617  ,  0.0  ,  0.0  ,  0.0  ,  0.015581314872  ,  0.233719723084  ,  0.218138408212  ,  0.093487889234  ,  0.0  ,  0.0  },
                                {   0.0  ,  0.0  ,  0.0  ,  0.0  ,  0.080972323531  ,  0.242916970594  ,  0.12955571765  ,  0.0  ,  0.0  ,  0.0  ,  0.0  ,  0.032388929413  ,  0.242916970594  ,  0.259111435301  ,  0.145750182357  ,  0.0  ,  0.0  ,  0.0  ,  0.048583394119  ,  0.242916970594  ,  0.259111435301  ,  0.259111435301  ,  0.161944647063  ,  0.0  ,  0.0  ,  0.113361252944  ,  0.259111435301  ,  0.161944647063  ,  0.12955571765  ,  0.259111435301  ,  0.113361252944  ,  0.0  ,  0.0  ,  0.0  ,  0.016194464706  ,  0.0  ,  0.12955571765  ,  0.259111435301  ,  0.064777858825  ,  0.0  ,  0.0  ,  0.0  ,  0.0  ,  0.0  ,  0.178139111769  ,  0.259111435301  ,  0.016194464706  ,  0.0  ,  0.0  ,  0.0  ,  0.0  ,  0.0  ,  0.145750182357  ,  0.259111435301  ,  0.016194464706  ,  0.0  ,  0.0  ,  0.0  ,  0.0  ,  0.0  ,  0.12955571765  ,  0.226722505888  ,  0.0  ,  0.0  },
                                {   0.0  ,  0.0  ,  0.0  ,  0.01483313865  ,  0.237330218395  ,  0.163164525146  ,  0.0  ,  0.0  ,  0.0  ,  0.0  ,  0.0  ,  0.01483313865  ,  0.237330218395  ,  0.237330218395  ,  0.059332554599  ,  0.0  ,  0.0  ,  0.0  ,  0.0  ,  0.118665109197  ,  0.237330218395  ,  0.237330218395  ,  0.0  ,  0.0  ,  0.0  ,  0.0  ,  0.148331386497  ,  0.237330218395  ,  0.237330218395  ,  0.237330218395  ,  0.01483313865  ,  0.0  ,  0.0  ,  0.088998831898  ,  0.237330218395  ,  0.207663941095  ,  0.237330218395  ,  0.222497079745  ,  0.0  ,  0.0  ,  0.0  ,  0.01483313865  ,  0.044499415949  ,  0.074165693248  ,  0.237330218395  ,  0.177997663796  ,  0.0  ,  0.0  ,  0.0  ,  0.0  ,  0.0  ,  0.059332554599  ,  0.237330218395  ,  0.177997663796  ,  0.0  ,  0.0  ,  0.0  ,  0.0  ,  0.0  ,  0.029666277299  ,  0.222497079745  ,  0.177997663796  ,  0.0  ,  0.0  },
                                {   0.0  ,  0.0  ,  0.0  ,  0.057940597882  ,  0.188306943116  ,  0.188306943116  ,  0.0  ,  0.0  ,  0.0  ,  0.0  ,  0.0  ,  0.144851494705  ,  0.231762391528  ,  0.231762391528  ,  0.01448514947  ,  0.0  ,  0.0  ,  0.0  ,  0.043455448411  ,  0.202792092587  ,  0.231762391528  ,  0.188306943116  ,  0.0  ,  0.0  ,  0.0  ,  0.0  ,  0.115881195764  ,  0.231762391528  ,  0.231762391528  ,  0.072425747352  ,  0.0  ,  0.0  ,  0.0  ,  0.043455448411  ,  0.217277242057  ,  0.231762391528  ,  0.231762391528  ,  0.057940597882  ,  0.0  ,  0.0  ,  0.0  ,  0.057940597882  ,  0.231762391528  ,  0.231762391528  ,  0.231762391528  ,  0.086910896823  ,  0.0  ,  0.0  ,  0.0  ,  0.028970298941  ,  0.115881195764  ,  0.217277242057  ,  0.231762391528  ,  0.130366345234  ,  0.0  ,  0.0  ,  0.0  ,  0.0  ,  0.0  ,  0.057940597882  ,  0.202792092587  ,  0.173821793646  ,  0.0  ,  0.0  },
                                {   0.0  ,  0.0  ,  0.159923255252  ,  0.239884882878  ,  0.095953953151  ,  0.0  ,  0.0  ,  0.0  ,  0.0  ,  0.03198465105  ,  0.255877208403  ,  0.223892557353  ,  0.255877208403  ,  0.111946278676  ,  0.0  ,  0.0  ,  0.0  ,  0.063969302101  ,  0.255877208403  ,  0.127938604201  ,  0.079961627626  ,  0.255877208403  ,  0.015992325525  ,  0.0  ,  0.0  ,  0.079961627626  ,  0.191907906302  ,  0.0  ,  0.0  ,  0.191907906302  ,  0.127938604201  ,  0.0  ,  0.0  ,  0.127938604201  ,  0.143930929727  ,  0.0  ,  0.0  ,  0.191907906302  ,  0.127938604201  ,  0.0  ,  0.0  ,  0.079961627626  ,  0.191907906302  ,  0.0  ,  0.015992325525  ,  0.239884882878  ,  0.047976976576  ,  0.0  ,  0.0  ,  0.063969302101  ,  0.207900231827  ,  0.063969302101  ,  0.191907906302  ,  0.207900231827  ,  0.0  ,  0.0  ,  0.0  ,  0.0  ,  0.143930929727  ,  0.255877208403  ,  0.207900231827  ,  0.063969302101  ,  0.0  ,  0.0  },
                                {   0.0  ,  0.0  ,  0.0  ,  0.0  ,  0.207452311259  ,  0.086438463024  ,  0.0  ,  0.0  ,  0.0  ,  0.0  ,  0.0  ,  0.03457538521  ,  0.276603081678  ,  0.207452311259  ,  0.0  ,  0.0  ,  0.0  ,  0.0  ,  0.017287692605  ,  0.207452311259  ,  0.276603081678  ,  0.190164618654  ,  0.0  ,  0.0  ,  0.0  ,  0.03457538521  ,  0.207452311259  ,  0.276603081678  ,  0.276603081678  ,  0.172876926049  ,  0.0  ,  0.0  ,  0.0  ,  0.103726155629  ,  0.190164618654  ,  0.086438463024  ,  0.259315389073  ,  0.103726155629  ,  0.0  ,  0.0  ,  0.0  ,  0.0  ,  0.0  ,  0.017287692605  ,  0.276603081678  ,  0.155589233444  ,  0.0  ,  0.0  ,  0.0  ,  0.0  ,  0.0  ,  0.03457538521  ,  0.276603081678  ,  0.190164618654  ,  0.0  ,  0.0  ,  0.0  ,  0.0  ,  0.0  ,  0.051863077815  ,  0.276603081678  ,  0.138301540839  ,  0.0  ,  0.0  },
                                {   0.0  ,  0.0  ,  0.083764903626  ,  0.184282787977  ,  0.067011922901  ,  0.016752980725  ,  0.0  ,  0.0  ,  0.0  ,  0.0  ,  0.251294710877  ,  0.268047691602  ,  0.268047691602  ,  0.184282787977  ,  0.0  ,  0.0  ,  0.0  ,  0.03350596145  ,  0.268047691602  ,  0.150776826526  ,  0.03350596145  ,  0.201035768702  ,  0.067011922901  ,  0.0  ,  0.0  ,  0.100517884351  ,  0.217788749427  ,  0.0  ,  0.0  ,  0.100517884351  ,  0.100517884351  ,  0.0  ,  0.0  ,  0.050258942175  ,  0.217788749427  ,  0.0  ,  0.0  ,  0.083764903626  ,  0.150776826526  ,  0.0  ,  0.0  ,  0.050258942175  ,  0.268047691602  ,  0.0  ,  0.0  ,  0.100517884351  ,  0.134023845801  ,  0.0  ,  0.0  ,  0.0  ,  0.217788749427  ,  0.201035768702  ,  0.134023845801  ,  0.268047691602  ,  0.117270865076  ,  0.0  ,  0.0  ,  0.0  ,  0.067011922901  ,  0.217788749427  ,  0.201035768702  ,  0.167529807251  ,  0.0  ,  0.0  },
                                {   0.0  ,  0.0  ,  0.0  ,  0.0  ,  0.192772638937  ,  0.208837025515  ,  0.016064386578  ,  0.0  ,  0.0  ,  0.0  ,  0.0  ,  0.128515092624  ,  0.257030185249  ,  0.240965798671  ,  0.032128773156  ,  0.0  ,  0.0  ,  0.0  ,  0.16064386578  ,  0.257030185249  ,  0.257030185249  ,  0.192772638937  ,  0.0  ,  0.0  ,  0.0  ,  0.064257546312  ,  0.257030185249  ,  0.257030185249  ,  0.257030185249  ,  0.208837025515  ,  0.0  ,  0.0  ,  0.0  ,  0.064257546312  ,  0.112450706046  ,  0.064257546312  ,  0.257030185249  ,  0.096386319468  ,  0.0  ,  0.0  ,  0.0  ,  0.0  ,  0.0  ,  0.016064386578  ,  0.257030185249  ,  0.128515092624  ,  0.0  ,  0.0  ,  0.0  ,  0.0  ,  0.0  ,  0.016064386578  ,  0.257030185249  ,  0.128515092624  ,  0.0  ,  0.0  ,  0.0  ,  0.0  ,  0.0  ,  0.0  ,  0.192772638937  ,  0.192772638937  ,  0.0  ,  0.0  },
                                {   0.0  ,  0.0  ,  0.087065215375  ,  0.1393043446  ,  0.191543473825  ,  0.087065215375  ,  0.0  ,  0.0  ,  0.0  ,  0.0  ,  0.226369559975  ,  0.2786086892  ,  0.2089565169  ,  0.2089565169  ,  0.0  ,  0.0  ,  0.0  ,  0.017413043075  ,  0.2786086892  ,  0.156717387675  ,  0.0  ,  0.156717387675  ,  0.052239129225  ,  0.0  ,  0.0  ,  0.052239129225  ,  0.2786086892  ,  0.10447825845  ,  0.0  ,  0.10447825845  ,  0.10447825845  ,  0.0  ,  0.0  ,  0.052239129225  ,  0.191543473825  ,  0.017413043075  ,  0.0  ,  0.087065215375  ,  0.10447825845  ,  0.0  ,  0.0  ,  0.0  ,  0.2089565169  ,  0.0  ,  0.0  ,  0.191543473825  ,  0.10447825845  ,  0.0  ,  0.0  ,  0.0  ,  0.24378260305  ,  0.087065215375  ,  0.2089565169  ,  0.261195646125  ,  0.017413043075  ,  0.0  ,  0.0  ,  0.0  ,  0.10447825845  ,  0.2786086892  ,  0.226369559975  ,  0.03482608615  ,  0.0  ,  0.0  },
                                {   0.0  ,  0.0  ,  0.0  ,  0.194550620685  ,  0.224481485406  ,  0.119723458883  ,  0.0  ,  0.0  ,  0.0  ,  0.0  ,  0.01496543236  ,  0.239446917766  ,  0.239446917766  ,  0.149654323604  ,  0.0  ,  0.0  ,  0.0  ,  0.0  ,  0.01496543236  ,  0.239446917766  ,  0.239446917766  ,  0.119723458883  ,  0.0  ,  0.0  ,  0.0  ,  0.0  ,  0.059861729442  ,  0.239446917766  ,  0.239446917766  ,  0.029930864721  ,  0.0  ,  0.0  ,  0.0  ,  0.0  ,  0.164619755964  ,  0.239446917766  ,  0.209516053045  ,  0.0  ,  0.0  ,  0.0  ,  0.0  ,  0.029930864721  ,  0.239446917766  ,  0.239446917766  ,  0.149654323604  ,  0.0  ,  0.0  ,  0.0  ,  0.0  ,  0.0  ,  0.194550620685  ,  0.239446917766  ,  0.224481485406  ,  0.029930864721  ,  0.0  ,  0.0  ,  0.0  ,  0.0  ,  0.01496543236  ,  0.194550620685  ,  0.239446917766  ,  0.059861729442  ,  0.0  ,  0.0  },
                                {   0.0  ,  0.0  ,  0.0  ,  0.0  ,  0.102180405494  ,  0.170300675823  ,  0.0  ,  0.0  ,  0.0  ,  0.0  ,  0.0  ,  0.0  ,  0.238420946152  ,  0.255451013734  ,  0.0  ,  0.0  ,  0.0  ,  0.0  ,  0.0  ,  0.170300675823  ,  0.272481081316  ,  0.272481081316  ,  0.0  ,  0.0  ,  0.0  ,  0.0  ,  0.119210473076  ,  0.272481081316  ,  0.272481081316  ,  0.255451013734  ,  0.0  ,  0.0  ,  0.0  ,  0.051090202747  ,  0.255451013734  ,  0.119210473076  ,  0.255451013734  ,  0.170300675823  ,  0.0  ,  0.0  ,  0.0  ,  0.0  ,  0.0  ,  0.0  ,  0.221390878569  ,  0.187330743405  ,  0.0  ,  0.0  ,  0.0  ,  0.0  ,  0.0  ,  0.0  ,  0.255451013734  ,  0.15327060824  ,  0.0  ,  0.0  ,  0.0  ,  0.0  ,  0.0  ,  0.0  ,  0.136240540658  ,  0.255451013734  ,  0.0  ,  0.0  },
                                {   0.0  ,  0.0  ,  0.0  ,  0.0  ,  0.113465452135  ,  0.243140254575  ,  0.016209350305  ,  0.0  ,  0.0  ,  0.0  ,  0.0  ,  0.0  ,  0.178302853355  ,  0.25934960488  ,  0.0  ,  0.0  ,  0.0  ,  0.0  ,  0.0  ,  0.0  ,  0.25934960488  ,  0.22693090427  ,  0.0  ,  0.0  ,  0.0  ,  0.0  ,  0.0  ,  0.16209350305  ,  0.25934960488  ,  0.243140254575  ,  0.0  ,  0.0  ,  0.0  ,  0.0  ,  0.19451220366  ,  0.25934960488  ,  0.25934960488  ,  0.178302853355  ,  0.0  ,  0.0  ,  0.0  ,  0.081046751525  ,  0.25934960488  ,  0.09725610183  ,  0.243140254575  ,  0.19451220366  ,  0.0  ,  0.0  ,  0.0  ,  0.0  ,  0.016209350305  ,  0.0  ,  0.19451220366  ,  0.25934960488  ,  0.0  ,  0.0  ,  0.0  ,  0.0  ,  0.0  ,  0.0  ,  0.06483740122  ,  0.243140254575  ,  0.06483740122  ,  0.0  },
                                {   0.0  ,  0.0  ,  0.0  ,  0.09715664862  ,  0.222072339702  ,  0.222072339702  ,  0.09715664862  ,  0.0  ,  0.0  ,  0.0  ,  0.0  ,  0.19431329724  ,  0.222072339702  ,  0.222072339702  ,  0.055518084926  ,  0.0  ,  0.0  ,  0.027759042463  ,  0.180433776008  ,  0.222072339702  ,  0.222072339702  ,  0.166554254777  ,  0.0  ,  0.0  ,  0.0  ,  0.09715664862  ,  0.222072339702  ,  0.222072339702  ,  0.222072339702  ,  0.166554254777  ,  0.0  ,  0.0  ,  0.0  ,  0.0  ,  0.0  ,  0.138795212314  ,  0.222072339702  ,  0.111036169851  ,  0.0  ,  0.0  ,  0.0  ,  0.0  ,  0.0  ,  0.152674733545  ,  0.222072339702  ,  0.180433776008  ,  0.0  ,  0.0  ,  0.0  ,  0.0  ,  0.0  ,  0.138795212314  ,  0.222072339702  ,  0.222072339702  ,  0.027759042463  ,  0.0  ,  0.0  ,  0.0  ,  0.0  ,  0.124915691083  ,  0.222072339702  ,  0.166554254777  ,  0.027759042463  ,  0.0  },
                                {   0.0  ,  0.0  ,  0.0  ,  0.184965948206  ,  0.200379777223  ,  0.077069145086  ,  0.0  ,  0.0  ,  0.0  ,  0.0  ,  0.0  ,  0.169552119189  ,  0.246621264275  ,  0.138724461154  ,  0.0  ,  0.0  ,  0.0  ,  0.0  ,  0.046241487051  ,  0.231207435257  ,  0.246621264275  ,  0.092482974103  ,  0.0  ,  0.0  ,  0.0  ,  0.10789680312  ,  0.231207435257  ,  0.246621264275  ,  0.246621264275  ,  0.030827658034  ,  0.0  ,  0.0  ,  0.0  ,  0.0  ,  0.015413829017  ,  0.246621264275  ,  0.246621264275  ,  0.046241487051  ,  0.0  ,  0.0  ,  0.0  ,  0.0  ,  0.015413829017  ,  0.246621264275  ,  0.246621264275  ,  0.092482974103  ,  0.0  ,  0.0  ,  0.0  ,  0.0  ,  0.015413829017  ,  0.246621264275  ,  0.246621264275  ,  0.092482974103  ,  0.0  ,  0.0  ,  0.0  ,  0.0  ,  0.0  ,  0.169552119189  ,  0.246621264275  ,  0.154138290172  ,  0.0  ,  0.0  },
                                {   0.0  ,  0.0  ,  0.0  ,  0.090494546611  ,  0.241318790963  ,  0.090494546611  ,  0.0  ,  0.0  ,  0.0  ,  0.0  ,  0.0  ,  0.196071517657  ,  0.241318790963  ,  0.150824244352  ,  0.0  ,  0.0  ,  0.0  ,  0.0  ,  0.135741819917  ,  0.241318790963  ,  0.241318790963  ,  0.090494546611  ,  0.0  ,  0.0  ,  0.0  ,  0.045247273306  ,  0.241318790963  ,  0.241318790963  ,  0.241318790963  ,  0.060329697741  ,  0.0  ,  0.0  ,  0.0  ,  0.075412122176  ,  0.241318790963  ,  0.241318790963  ,  0.241318790963  ,  0.090494546611  ,  0.0  ,  0.0  ,  0.0  ,  0.0  ,  0.0  ,  0.135741819917  ,  0.241318790963  ,  0.150824244352  ,  0.0  ,  0.0  ,  0.0  ,  0.0  ,  0.0  ,  0.120659395481  ,  0.241318790963  ,  0.226236366528  ,  0.0  ,  0.0  ,  0.0  ,  0.0  ,  0.0  ,  0.060329697741  ,  0.196071517657  ,  0.165906668787  ,  0.03016484887  ,  0.0  },
                                {   0.0  ,  0.0  ,  0.0  ,  0.079839206078  ,  0.255485459449  ,  0.14371057094  ,  0.0  ,  0.0  ,  0.0  ,  0.0  ,  0.015967841216  ,  0.207581935802  ,  0.255485459449  ,  0.095807047293  ,  0.0  ,  0.0  ,  0.0  ,  0.0  ,  0.207581935802  ,  0.255485459449  ,  0.255485459449  ,  0.063871364862  ,  0.0  ,  0.0  ,  0.0  ,  0.079839206078  ,  0.239517618233  ,  0.255485459449  ,  0.255485459449  ,  0.079839206078  ,  0.0  ,  0.0  ,  0.0  ,  0.0  ,  0.0  ,  0.159678412156  ,  0.255485459449  ,  0.111774888509  ,  0.0  ,  0.0  ,  0.0  ,  0.0  ,  0.0  ,  0.14371057094  ,  0.255485459449  ,  0.127742729724  ,  0.0  ,  0.0  ,  0.0  ,  0.0  ,  0.0  ,  0.14371057094  ,  0.255485459449  ,  0.207581935802  ,  0.0  ,  0.0  ,  0.0  ,  0.0  ,  0.0  ,  0.079839206078  ,  0.223549777018  ,  0.14371057094  ,  0.0  ,  0.0  },
                                {   0.0  ,  0.0  ,  0.036742116504  ,  0.238823757278  ,  0.183710582521  ,  0.055113174756  ,  0.0  ,  0.0  ,  0.0  ,  0.0  ,  0.183710582521  ,  0.275565873782  ,  0.220452699025  ,  0.238823757278  ,  0.018371058252  ,  0.0  ,  0.0  ,  0.0  ,  0.293936932034  ,  0.073484233008  ,  0.0  ,  0.110226349513  ,  0.073484233008  ,  0.0  ,  0.0  ,  0.036742116504  ,  0.293936932034  ,  0.055113174756  ,  0.0  ,  0.018371058252  ,  0.128597407765  ,  0.0  ,  0.0  ,  0.091855291261  ,  0.238823757278  ,  0.091855291261  ,  0.0  ,  0.036742116504  ,  0.146968466017  ,  0.0  ,  0.0  ,  0.073484233008  ,  0.220452699025  ,  0.0  ,  0.0  ,  0.055113174756  ,  0.146968466017  ,  0.0  ,  0.0  ,  0.0  ,  0.238823757278  ,  0.091855291261  ,  0.110226349513  ,  0.238823757278  ,  0.091855291261  ,  0.0  ,  0.0  ,  0.0  ,  0.091855291261  ,  0.25719481553  ,  0.238823757278  ,  0.146968466017  ,  0.018371058252  ,  0.0  },
                                {   0.0  ,  0.0  ,  0.0  ,  0.0  ,  0.176344561204  ,  0.19237588495  ,  0.0  ,  0.0  ,  0.0  ,  0.0  ,  0.0  ,  0.048093971237  ,  0.240469856187  ,  0.224438532442  ,  0.0  ,  0.0  ,  0.0  ,  0.0  ,  0.0  ,  0.176344561204  ,  0.256501179933  ,  0.176344561204  ,  0.0  ,  0.0  ,  0.0  ,  0.0  ,  0.144281913712  ,  0.256501179933  ,  0.256501179933  ,  0.160313237458  ,  0.0  ,  0.0  ,  0.0  ,  0.064125294983  ,  0.256501179933  ,  0.19237588495  ,  0.256501179933  ,  0.19237588495  ,  0.0  ,  0.0  ,  0.0  ,  0.048093971237  ,  0.160313237458  ,  0.048093971237  ,  0.256501179933  ,  0.176344561204  ,  0.0  ,  0.0  ,  0.0  ,  0.0  ,  0.0  ,  0.0  ,  0.256501179933  ,  0.224438532442  ,  0.0  ,  0.0  ,  0.0  ,  0.0  ,  0.0  ,  0.0  ,  0.176344561204  ,  0.176344561204  ,  0.0  ,  0.0  },
                                {   0.0  ,  0.0  ,  0.0  ,  0.017254206765  ,  0.276067308239  ,  0.086271033825  ,  0.0  ,  0.0  ,  0.0  ,  0.0  ,  0.0  ,  0.086271033825  ,  0.276067308239  ,  0.189796274414  ,  0.0  ,  0.0  ,  0.0  ,  0.0  ,  0.0  ,  0.207050481179  ,  0.276067308239  ,  0.189796274414  ,  0.0  ,  0.0  ,  0.0  ,  0.120779447354  ,  0.207050481179  ,  0.276067308239  ,  0.276067308239  ,  0.120779447354  ,  0.0  ,  0.0  ,  0.0  ,  0.06901682706  ,  0.138033654119  ,  0.207050481179  ,  0.276067308239  ,  0.06901682706  ,  0.0  ,  0.0  ,  0.0  ,  0.0  ,  0.0  ,  0.155287860884  ,  0.276067308239  ,  0.03450841353  ,  0.0  ,  0.0  ,  0.0  ,  0.0  ,  0.0  ,  0.172542067649  ,  0.276067308239  ,  0.03450841353  ,  0.0  ,  0.0  ,  0.0  ,  0.0  ,  0.0  ,  0.051762620295  ,  0.224304687944  ,  0.086271033825  ,  0.0  ,  0.0  },
                                {   0.0  ,  0.0  ,  0.0  ,  0.0  ,  0.212340685757  ,  0.197173493917  ,  0.01516719184  ,  0.0  ,  0.0  ,  0.0  ,  0.0  ,  0.075835959199  ,  0.242675069436  ,  0.242675069436  ,  0.03033438368  ,  0.0  ,  0.0  ,  0.0  ,  0.0  ,  0.212340685757  ,  0.242675069436  ,  0.182006302077  ,  0.0  ,  0.0  ,  0.0  ,  0.01516719184  ,  0.151671918398  ,  0.242675069436  ,  0.242675069436  ,  0.182006302077  ,  0.0  ,  0.0  ,  0.0  ,  0.045501575519  ,  0.182006302077  ,  0.212340685757  ,  0.242675069436  ,  0.136504726558  ,  0.0  ,  0.0  ,  0.0  ,  0.0  ,  0.0  ,  0.075835959199  ,  0.242675069436  ,  0.227507877597  ,  0.0  ,  0.0  ,  0.0  ,  0.0  ,  0.0  ,  0.060668767359  ,  0.242675069436  ,  0.212340685757  ,  0.0  ,  0.0  ,  0.0  ,  0.0  ,  0.0  ,  0.01516719184  ,  0.197173493917  ,  0.242675069436  ,  0.01516719184  ,  0.0  },
                                {   0.0  ,  0.0  ,  0.048957167616  ,  0.261104893952  ,  0.179509614592  ,  0.0  ,  0.0  ,  0.0  ,  0.0  ,  0.0  ,  0.0  ,  0.261104893952  ,  0.261104893952  ,  0.097914335232  ,  0.0  ,  0.0  ,  0.0  ,  0.0  ,  0.0  ,  0.212147726336  ,  0.261104893952  ,  0.114233391104  ,  0.0  ,  0.0  ,  0.0  ,  0.0  ,  0.0  ,  0.179509614592  ,  0.261104893952  ,  0.16319055872  ,  0.0  ,  0.0  ,  0.0  ,  0.0  ,  0.0  ,  0.195828670464  ,  0.261104893952  ,  0.097914335232  ,  0.0  ,  0.0  ,  0.0  ,  0.0  ,  0.048957167616  ,  0.261104893952  ,  0.261104893952  ,  0.032638111744  ,  0.0  ,  0.0  ,  0.0  ,  0.0  ,  0.08159527936  ,  0.261104893952  ,  0.24478583808  ,  0.0  ,  0.0  ,  0.0  ,  0.0  ,  0.0  ,  0.048957167616  ,  0.212147726336  ,  0.24478583808  ,  0.0  ,  0.0  ,  0.0  },
                                {   0.0  ,  0.0  ,  0.0  ,  0.017142297404  ,  0.205707568842  ,  0.137138379228  ,  0.017142297404  ,  0.0  ,  0.0  ,  0.0  ,  0.0  ,  0.068569189614  ,  0.274276758456  ,  0.274276758456  ,  0.017142297404  ,  0.0  ,  0.0  ,  0.0  ,  0.017142297404  ,  0.222849866246  ,  0.274276758456  ,  0.188565271439  ,  0.0  ,  0.0  ,  0.0  ,  0.017142297404  ,  0.188565271439  ,  0.274276758456  ,  0.274276758456  ,  0.205707568842  ,  0.0  ,  0.0  ,  0.0  ,  0.034284594807  ,  0.205707568842  ,  0.137138379228  ,  0.274276758456  ,  0.171422974035  ,  0.0  ,  0.0  ,  0.0  ,  0.0  ,  0.0  ,  0.0  ,  0.257134461053  ,  0.137138379228  ,  0.0  ,  0.0  ,  0.0  ,  0.0  ,  0.0  ,  0.068569189614  ,  0.274276758456  ,  0.068569189614  ,  0.0  ,  0.0  ,  0.0  ,  0.0  ,  0.0  ,  0.051426892211  ,  0.222849866246  ,  0.068569189614  ,  0.0  ,  0.0  },
                                {   0.0  ,  0.0  ,  0.0  ,  0.0  ,  0.08808607043  ,  0.246640997205  ,  0.052851642258  ,  0.0  ,  0.0  ,  0.0  ,  0.0  ,  0.0  ,  0.158554926775  ,  0.281875425377  ,  0.140937712688  ,  0.0  ,  0.0  ,  0.0  ,  0.0  ,  0.158554926775  ,  0.281875425377  ,  0.281875425377  ,  0.08808607043  ,  0.0  ,  0.0  ,  0.017617214086  ,  0.229023783119  ,  0.264258211291  ,  0.211406569033  ,  0.281875425377  ,  0.017617214086  ,  0.0  ,  0.0  ,  0.070468856344  ,  0.211406569033  ,  0.052851642258  ,  0.176172140861  ,  0.264258211291  ,  0.0  ,  0.0  ,  0.0  ,  0.0  ,  0.0  ,  0.0  ,  0.193789354947  ,  0.211406569033  ,  0.0  ,  0.0  ,  0.0  ,  0.0  ,  0.0  ,  0.0  ,  0.140937712688  ,  0.211406569033  ,  0.0  ,  0.0  ,  0.0  ,  0.0  ,  0.0  ,  0.0  ,  0.08808607043  ,  0.229023783119  ,  0.070468856344  ,  0.0  },
                                {   0.0  ,  0.0  ,  0.015815342631  ,  0.221414796832  ,  0.110707398416  ,  0.0  ,  0.0  ,  0.0  ,  0.0  ,  0.0  ,  0.094892055785  ,  0.253045482094  ,  0.253045482094  ,  0.015815342631  ,  0.0  ,  0.0  ,  0.0  ,  0.0  ,  0.110707398416  ,  0.253045482094  ,  0.237230139463  ,  0.0  ,  0.0  ,  0.0  ,  0.0  ,  0.0  ,  0.094892055785  ,  0.253045482094  ,  0.237230139463  ,  0.0  ,  0.0  ,  0.0  ,  0.0  ,  0.0  ,  0.094892055785  ,  0.253045482094  ,  0.237230139463  ,  0.0  ,  0.0  ,  0.0  ,  0.0  ,  0.0  ,  0.063261370523  ,  0.253045482094  ,  0.253045482094  ,  0.015815342631  ,  0.0  ,  0.0  ,  0.0  ,  0.0  ,  0.063261370523  ,  0.253045482094  ,  0.253045482094  ,  0.094892055785  ,  0.0  ,  0.0  ,  0.0  ,  0.0  ,  0.015815342631  ,  0.237230139463  ,  0.253045482094  ,  0.126522741047  ,  0.0  ,  0.0  },
                                {   0.0  ,  0.0  ,  0.0  ,  0.0  ,  0.165976532577  ,  0.182574185835  ,  0.0  ,  0.0  ,  0.0  ,  0.0  ,  0.0  ,  0.0  ,  0.265562452124  ,  0.215769492351  ,  0.0  ,  0.0  ,  0.0  ,  0.0  ,  0.0  ,  0.116183572804  ,  0.265562452124  ,  0.14937887932  ,  0.0  ,  0.0  ,  0.0  ,  0.0  ,  0.0  ,  0.215769492351  ,  0.265562452124  ,  0.049792959773  ,  0.0  ,  0.0  ,  0.0  ,  0.0  ,  0.165976532577  ,  0.265562452124  ,  0.265562452124  ,  0.0  ,  0.0  ,  0.0  ,  0.0  ,  0.0  ,  0.248964798866  ,  0.265562452124  ,  0.265562452124  ,  0.066390613031  ,  0.0  ,  0.0  ,  0.0  ,  0.049792959773  ,  0.199171839093  ,  0.099585919546  ,  0.265562452124  ,  0.099585919546  ,  0.0  ,  0.0  ,  0.0  ,  0.0  ,  0.0  ,  0.0  ,  0.165976532577  ,  0.215769492351  ,  0.116183572804  ,  0.0  },
                                {   0.0  ,  0.0  ,  0.0  ,  0.173925271309  ,  0.252982212813  ,  0.079056941504  ,  0.0  ,  0.0  ,  0.0  ,  0.0  ,  0.0  ,  0.158113883008  ,  0.252982212813  ,  0.079056941504  ,  0.0  ,  0.0  ,  0.0  ,  0.0  ,  0.063245553203  ,  0.252982212813  ,  0.252982212813  ,  0.079056941504  ,  0.0  ,  0.0  ,  0.0  ,  0.173925271309  ,  0.252982212813  ,  0.252982212813  ,  0.252982212813  ,  0.047434164903  ,  0.0  ,  0.0  ,  0.0  ,  0.079056941504  ,  0.126491106407  ,  0.221359436212  ,  0.252982212813  ,  0.031622776602  ,  0.0  ,  0.0  ,  0.0  ,  0.0  ,  0.0  ,  0.221359436212  ,  0.252982212813  ,  0.031622776602  ,  0.0  ,  0.0  ,  0.0  ,  0.0  ,  0.0  ,  0.173925271309  ,  0.252982212813  ,  0.031622776602  ,  0.0  ,  0.0  ,  0.0  ,  0.0  ,  0.0  ,  0.126491106407  ,  0.252982212813  ,  0.126491106407  ,  0.0  ,  0.0  },
                                {   0.0  ,  0.0  ,  0.033686076843  ,  0.25264557632  ,  0.218959499477  ,  0.050529115264  ,  0.0  ,  0.0  ,  0.0  ,  0.0  ,  0.168430384213  ,  0.25264557632  ,  0.185273422635  ,  0.25264557632  ,  0.0  ,  0.0  ,  0.0  ,  0.050529115264  ,  0.269488614741  ,  0.101058230528  ,  0.0  ,  0.168430384213  ,  0.0  ,  0.0  ,  0.0  ,  0.067372153685  ,  0.269488614741  ,  0.134744307371  ,  0.0  ,  0.050529115264  ,  0.134744307371  ,  0.0  ,  0.0  ,  0.134744307371  ,  0.235802537899  ,  0.050529115264  ,  0.0  ,  0.067372153685  ,  0.134744307371  ,  0.0  ,  0.0  ,  0.050529115264  ,  0.25264557632  ,  0.016843038421  ,  0.0  ,  0.050529115264  ,  0.117901268949  ,  0.0  ,  0.0  ,  0.0  ,  0.235802537899  ,  0.185273422635  ,  0.101058230528  ,  0.235802537899  ,  0.084215192107  ,  0.0  ,  0.0  ,  0.0  ,  0.067372153685  ,  0.202116461056  ,  0.25264557632  ,  0.101058230528  ,  0.0  ,  0.0  },
                                {   0.0  ,  0.0  ,  0.033903175181  ,  0.203419051086  ,  0.254273813858  ,  0.203419051086  ,  0.016951587591  ,  0.0  ,  0.0  ,  0.016951587591  ,  0.237322226267  ,  0.237322226267  ,  0.237322226267  ,  0.186467463496  ,  0.135612700724  ,  0.0  ,  0.0  ,  0.084757937953  ,  0.271225401448  ,  0.050854762772  ,  0.0  ,  0.033903175181  ,  0.135612700724  ,  0.0  ,  0.0  ,  0.135612700724  ,  0.237322226267  ,  0.0  ,  0.0  ,  0.101709525543  ,  0.135612700724  ,  0.0  ,  0.0  ,  0.067806350362  ,  0.203419051086  ,  0.0  ,  0.0  ,  0.152564288315  ,  0.067806350362  ,  0.0  ,  0.0  ,  0.016951587591  ,  0.271225401448  ,  0.016951587591  ,  0.016951587591  ,  0.237322226267  ,  0.016951587591  ,  0.0  ,  0.0  ,  0.0  ,  0.186467463496  ,  0.152564288315  ,  0.186467463496  ,  0.135612700724  ,  0.0  ,  0.0  ,  0.0  ,  0.0  ,  0.033903175181  ,  0.220370638677  ,  0.237322226267  ,  0.016951587591  ,  0.0  ,  0.0  },
                                {   0.0  ,  0.0  ,  0.036043350176  ,  0.216260101056  ,  0.162195075792  ,  0.0  ,  0.0  ,  0.0  ,  0.0  ,  0.0  ,  0.198238425968  ,  0.27032512632  ,  0.216260101056  ,  0.09010837544  ,  0.0  ,  0.0  ,  0.0  ,  0.0  ,  0.27032512632  ,  0.09010837544  ,  0.0  ,  0.252303451232  ,  0.0  ,  0.0  ,  0.0  ,  0.036043350176  ,  0.27032512632  ,  0.018021675088  ,  0.0  ,  0.162195075792  ,  0.126151725616  ,  0.0  ,  0.0  ,  0.072086700352  ,  0.18021675088  ,  0.0  ,  0.0  ,  0.126151725616  ,  0.144173400704  ,  0.0  ,  0.0  ,  0.0  ,  0.216260101056  ,  0.0  ,  0.0  ,  0.144173400704  ,  0.18021675088  ,  0.0  ,  0.0  ,  0.036043350176  ,  0.27032512632  ,  0.09010837544  ,  0.18021675088  ,  0.288346801408  ,  0.018021675088  ,  0.0  ,  0.0  ,  0.0  ,  0.09010837544  ,  0.252303451232  ,  0.216260101056  ,  0.072086700352  ,  0.0  ,  0.0  },
                                {   0.0  ,  0.0  ,  0.067786874173  ,  0.254200778149  ,  0.203360622519  ,  0.033893437087  ,  0.0  ,  0.0  ,  0.0  ,  0.033893437087  ,  0.254200778149  ,  0.118627029803  ,  0.186413903976  ,  0.169467185433  ,  0.0  ,  0.0  ,  0.0  ,  0.067786874173  ,  0.271147496693  ,  0.0  ,  0.0  ,  0.254200778149  ,  0.016946718543  ,  0.0  ,  0.0  ,  0.10168031126  ,  0.169467185433  ,  0.0  ,  0.0  ,  0.169467185433  ,  0.135573748346  ,  0.0  ,  0.0  ,  0.135573748346  ,  0.135573748346  ,  0.0  ,  0.0  ,  0.10168031126  ,  0.135573748346  ,  0.0  ,  0.0  ,  0.084733592716  ,  0.203360622519  ,  0.0  ,  0.0  ,  0.186413903976  ,  0.135573748346  ,  0.0  ,  0.0  ,  0.033893437087  ,  0.271147496693  ,  0.118627029803  ,  0.135573748346  ,  0.271147496693  ,  0.033893437087  ,  0.0  ,  0.0  ,  0.0  ,  0.10168031126  ,  0.254200778149  ,  0.271147496693  ,  0.135573748346  ,  0.0  ,  0.0  },
                                {   0.0  ,  0.0  ,  0.017002967277  ,  0.255044509151  ,  0.221038574597  ,  0.017002967277  ,  0.0  ,  0.0  ,  0.0  ,  0.0  ,  0.119020770937  ,  0.272047476427  ,  0.238041541874  ,  0.136023738214  ,  0.0  ,  0.0  ,  0.0  ,  0.136023738214  ,  0.20403560732  ,  0.15302670549  ,  0.034005934553  ,  0.221038574597  ,  0.034005934553  ,  0.0  ,  0.0  ,  0.119020770937  ,  0.15302670549  ,  0.017002967277  ,  0.0  ,  0.10201780366  ,  0.10201780366  ,  0.0  ,  0.0  ,  0.085014836384  ,  0.15302670549  ,  0.0  ,  0.0  ,  0.05100890183  ,  0.15302670549  ,  0.0  ,  0.0  ,  0.0  ,  0.255044509151  ,  0.034005934553  ,  0.0  ,  0.136023738214  ,  0.20403560732  ,  0.0  ,  0.0  ,  0.0  ,  0.15302670549  ,  0.255044509151  ,  0.221038574597  ,  0.272047476427  ,  0.10201780366  ,  0.0  ,  0.0  ,  0.0  ,  0.0  ,  0.221038574597  ,  0.238041541874  ,  0.136023738214  ,  0.0  ,  0.0  },
                                {   0.0  ,  0.0  ,  0.015649854711  ,  0.187798256536  ,  0.078249273557  ,  0.0  ,  0.0  ,  0.0  ,  0.0  ,  0.0  ,  0.140848692402  ,  0.250397675381  ,  0.219097965959  ,  0.046949564134  ,  0.0  ,  0.0  ,  0.0  ,  0.031299709423  ,  0.250397675381  ,  0.219097965959  ,  0.172148401825  ,  0.203448111247  ,  0.0  ,  0.0  ,  0.0  ,  0.031299709423  ,  0.250397675381  ,  0.156498547113  ,  0.0  ,  0.219097965959  ,  0.062599418845  ,  0.0  ,  0.0  ,  0.062599418845  ,  0.250397675381  ,  0.0  ,  0.0  ,  0.187798256536  ,  0.062599418845  ,  0.0  ,  0.0  ,  0.062599418845  ,  0.250397675381  ,  0.046949564134  ,  0.0  ,  0.172148401825  ,  0.156498547113  ,  0.0  ,  0.0  ,  0.0  ,  0.203448111247  ,  0.187798256536  ,  0.125198837691  ,  0.219097965959  ,  0.093899128268  ,  0.0  ,  0.0  ,  0.0  ,  0.046949564134  ,  0.156498547113  ,  0.250397675381  ,  0.187798256536  ,  0.015649854711  ,  0.0  },
                                {   0.0  ,  0.0  ,  0.060585201524  ,  0.196901904954  ,  0.181755604573  ,  0.015146300381  ,  0.0  ,  0.0  ,  0.0  ,  0.030292600762  ,  0.227194505716  ,  0.212048205335  ,  0.242340806097  ,  0.196901904954  ,  0.0  ,  0.0  ,  0.0  ,  0.090877802286  ,  0.242340806097  ,  0.060585201524  ,  0.090877802286  ,  0.242340806097  ,  0.075731501905  ,  0.0  ,  0.0  ,  0.121170403048  ,  0.227194505716  ,  0.015146300381  ,  0.0  ,  0.181755604573  ,  0.121170403048  ,  0.0  ,  0.0  ,  0.121170403048  ,  0.181755604573  ,  0.0  ,  0.0  ,  0.181755604573  ,  0.121170403048  ,  0.0  ,  0.0  ,  0.075731501905  ,  0.196901904954  ,  0.0  ,  0.015146300381  ,  0.196901904954  ,  0.121170403048  ,  0.0  ,  0.0  ,  0.015146300381  ,  0.227194505716  ,  0.15146300381  ,  0.181755604573  ,  0.242340806097  ,  0.045438901143  ,  0.0  ,  0.0  ,  0.0  ,  0.090877802286  ,  0.242340806097  ,  0.196901904954  ,  0.060585201524  ,  0.0  ,  0.0  },
                                {   0.0  ,  0.0  ,  0.086665757216  ,  0.21666439304  ,  0.21666439304  ,  0.043332878608  ,  0.0  ,  0.0  ,  0.0  ,  0.043332878608  ,  0.231108685909  ,  0.202220100171  ,  0.202220100171  ,  0.187775807301  ,  0.0  ,  0.0  ,  0.0  ,  0.086665757216  ,  0.21666439304  ,  0.028888585739  ,  0.014444292869  ,  0.202220100171  ,  0.072221464347  ,  0.0  ,  0.0  ,  0.115554342955  ,  0.202220100171  ,  0.028888585739  ,  0.0  ,  0.129998635824  ,  0.115554342955  ,  0.0  ,  0.0  ,  0.115554342955  ,  0.231108685909  ,  0.057777171477  ,  0.0  ,  0.115554342955  ,  0.115554342955  ,  0.0  ,  0.0  ,  0.072221464347  ,  0.231108685909  ,  0.086665757216  ,  0.0  ,  0.158887221563  ,  0.129998635824  ,  0.0  ,  0.0  ,  0.014444292869  ,  0.231108685909  ,  0.231108685909  ,  0.202220100171  ,  0.231108685909  ,  0.129998635824  ,  0.0  ,  0.0  ,  0.0  ,  0.072221464347  ,  0.202220100171  ,  0.21666439304  ,  0.144442928693  ,  0.014444292869  ,  0.0  },
                                {   0.0  ,  0.0  ,  0.0  ,  0.068167735394  ,  0.204503206181  ,  0.177236112023  ,  0.013633547079  ,  0.0  ,  0.0  ,  0.0  ,  0.027267094157  ,  0.190869659102  ,  0.21813675326  ,  0.21813675326  ,  0.054534188315  ,  0.0  ,  0.0  ,  0.0  ,  0.10906837663  ,  0.21813675326  ,  0.21813675326  ,  0.21813675326  ,  0.054534188315  ,  0.0  ,  0.0  ,  0.081801282472  ,  0.204503206181  ,  0.21813675326  ,  0.21813675326  ,  0.21813675326  ,  0.013633547079  ,  0.0  ,  0.0  ,  0.040900641236  ,  0.095434829551  ,  0.136335470787  ,  0.21813675326  ,  0.21813675326  ,  0.054534188315  ,  0.0  ,  0.0  ,  0.0  ,  0.0  ,  0.149969017866  ,  0.21813675326  ,  0.21813675326  ,  0.013633547079  ,  0.0  ,  0.0  ,  0.0  ,  0.0  ,  0.163602564945  ,  0.21813675326  ,  0.21813675326  ,  0.013633547079  ,  0.0  ,  0.0  ,  0.0  ,  0.0  ,  0.081801282472  ,  0.190869659102  ,  0.163602564945  ,  0.013633547079  ,  0.0  },
                                {   0.0  ,  0.0  ,  0.0  ,  0.0  ,  0.048698475356  ,  0.243492376779  ,  0.097396950712  ,  0.0  ,  0.0  ,  0.0  ,  0.0  ,  0.0  ,  0.178561076304  ,  0.259725201897  ,  0.11362977583  ,  0.0  ,  0.0  ,  0.0  ,  0.0  ,  0.146095426067  ,  0.259725201897  ,  0.259725201897  ,  0.064931300474  ,  0.0  ,  0.0  ,  0.0  ,  0.162328251186  ,  0.259725201897  ,  0.259725201897  ,  0.259725201897  ,  0.064931300474  ,  0.0  ,  0.0  ,  0.064931300474  ,  0.259725201897  ,  0.11362977583  ,  0.129862600949  ,  0.259725201897  ,  0.064931300474  ,  0.0  ,  0.0  ,  0.016232825119  ,  0.064931300474  ,  0.0  ,  0.162328251186  ,  0.259725201897  ,  0.032465650237  ,  0.0  ,  0.0  ,  0.0  ,  0.0  ,  0.0  ,  0.11362977583  ,  0.259725201897  ,  0.016232825119  ,  0.0  ,  0.0  ,  0.0  ,  0.0  ,  0.0  ,  0.048698475356  ,  0.259725201897  ,  0.016232825119  ,  0.0  },
                                {   0.0  ,  0.0  ,  0.0  ,  0.014821729168  ,  0.177860750019  ,  0.103752104178  ,  0.0  ,  0.0  ,  0.0  ,  0.0  ,  0.0  ,  0.133395562514  ,  0.237147666692  ,  0.237147666692  ,  0.014821729168  ,  0.0  ,  0.0  ,  0.014821729168  ,  0.103752104178  ,  0.222325937523  ,  0.237147666692  ,  0.207504208355  ,  0.0  ,  0.0  ,  0.0  ,  0.059286916673  ,  0.237147666692  ,  0.237147666692  ,  0.237147666692  ,  0.237147666692  ,  0.0  ,  0.0  ,  0.0  ,  0.0  ,  0.0  ,  0.044465187505  ,  0.237147666692  ,  0.237147666692  ,  0.0  ,  0.0  ,  0.0  ,  0.0  ,  0.0  ,  0.029643458336  ,  0.237147666692  ,  0.237147666692  ,  0.044465187505  ,  0.0  ,  0.0  ,  0.0  ,  0.0  ,  0.088930375009  ,  0.237147666692  ,  0.237147666692  ,  0.0  ,  0.0  ,  0.0  ,  0.0  ,  0.0  ,  0.044465187505  ,  0.222325937523  ,  0.192682479187  ,  0.0  ,  0.0  },
                                {   0.0  ,  0.0  ,  0.034752402343  ,  0.260643017571  ,  0.139009609371  ,  0.0  ,  0.0  ,  0.0  ,  0.0  ,  0.0  ,  0.1216334082  ,  0.2432668164  ,  0.260643017571  ,  0.139009609371  ,  0.0  ,  0.0  ,  0.0  ,  0.1216334082  ,  0.260643017571  ,  0.052128603514  ,  0.052128603514  ,  0.260643017571  ,  0.0  ,  0.0  ,  0.0  ,  0.104257207029  ,  0.278019218743  ,  0.017376201171  ,  0.0  ,  0.156385810543  ,  0.139009609371  ,  0.0  ,  0.0  ,  0.069504804686  ,  0.208514414057  ,  0.0  ,  0.0  ,  0.139009609371  ,  0.139009609371  ,  0.0  ,  0.0  ,  0.0  ,  0.208514414057  ,  0.052128603514  ,  0.0  ,  0.208514414057  ,  0.1216334082  ,  0.0  ,  0.0  ,  0.0  ,  0.156385810543  ,  0.225890615228  ,  0.225890615228  ,  0.260643017571  ,  0.017376201171  ,  0.0  ,  0.0  ,  0.0  ,  0.017376201171  ,  0.156385810543  ,  0.208514414057  ,  0.086881005857  ,  0.0  ,  0.0  },
                                {   0.0  ,  0.0  ,  0.061640672839  ,  0.215742354938  ,  0.138691513889  ,  0.0  ,  0.0  ,  0.0  ,  0.0  ,  0.0  ,  0.200332186728  ,  0.246562691357  ,  0.246562691357  ,  0.154101682098  ,  0.0  ,  0.0  ,  0.0  ,  0.061640672839  ,  0.246562691357  ,  0.061640672839  ,  0.077050841049  ,  0.246562691357  ,  0.092461009259  ,  0.0  ,  0.0  ,  0.123281345679  ,  0.215742354938  ,  0.0  ,  0.01541016821  ,  0.231152523148  ,  0.077050841049  ,  0.0  ,  0.0  ,  0.092461009259  ,  0.246562691357  ,  0.0  ,  0.0  ,  0.200332186728  ,  0.061640672839  ,  0.0  ,  0.0  ,  0.061640672839  ,  0.231152523148  ,  0.01541016821  ,  0.107871177469  ,  0.246562691357  ,  0.01541016821  ,  0.0  ,  0.0  ,  0.03082033642  ,  0.231152523148  ,  0.215742354938  ,  0.246562691357  ,  0.107871177469  ,  0.0  ,  0.0  ,  0.0  ,  0.0  ,  0.061640672839  ,  0.200332186728  ,  0.138691513889  ,  0.0  ,  0.0  ,  0.0  },
                                {   0.0  ,  0.0  ,  0.102356247334  ,  0.175467852573  ,  0.13160088943  ,  0.0  ,  0.0  ,  0.0  ,  0.0  ,  0.0  ,  0.175467852573  ,  0.233957136765  ,  0.233957136765  ,  0.014622321048  ,  0.0  ,  0.0  ,  0.0  ,  0.0  ,  0.160845531526  ,  0.233957136765  ,  0.233957136765  ,  0.0  ,  0.0  ,  0.0  ,  0.0  ,  0.0  ,  0.175467852573  ,  0.233957136765  ,  0.233957136765  ,  0.0  ,  0.0  ,  0.0  ,  0.0  ,  0.0  ,  0.190090173621  ,  0.233957136765  ,  0.233957136765  ,  0.0  ,  0.0  ,  0.0  ,  0.0  ,  0.0  ,  0.190090173621  ,  0.233957136765  ,  0.233957136765  ,  0.0  ,  0.0  ,  0.0  ,  0.0  ,  0.014622321048  ,  0.204712494669  ,  0.233957136765  ,  0.233957136765  ,  0.014622321048  ,  0.0  ,  0.0  ,  0.0  ,  0.0  ,  0.058489284191  ,  0.175467852573  ,  0.175467852573  ,  0.13160088943  ,  0.0  ,  0.0  },
                                {   0.0  ,  0.0  ,  0.0  ,  0.0  ,  0.196405406354  ,  0.224463321547  ,  0.098202703177  ,  0.0  ,  0.0  ,  0.0  ,  0.0  ,  0.070144787983  ,  0.224463321547  ,  0.224463321547  ,  0.112231660774  ,  0.0  ,  0.0  ,  0.0  ,  0.014028957597  ,  0.16834749116  ,  0.224463321547  ,  0.224463321547  ,  0.112231660774  ,  0.0  ,  0.0  ,  0.070144787983  ,  0.196405406354  ,  0.224463321547  ,  0.224463321547  ,  0.224463321547  ,  0.070144787983  ,  0.0  ,  0.0  ,  0.014028957597  ,  0.056115830387  ,  0.098202703177  ,  0.224463321547  ,  0.224463321547  ,  0.112231660774  ,  0.0  ,  0.0  ,  0.0  ,  0.0  ,  0.028057915193  ,  0.224463321547  ,  0.224463321547  ,  0.098202703177  ,  0.0  ,  0.0  ,  0.0  ,  0.0  ,  0.028057915193  ,  0.224463321547  ,  0.224463321547  ,  0.04208687279  ,  0.0  ,  0.0  ,  0.0  ,  0.0  ,  0.0  ,  0.224463321547  ,  0.224463321547  ,  0.0  ,  0.0  },
                                {   0.0  ,  0.0  ,  0.014514109129  ,  0.188683418677  ,  0.14514109129  ,  0.0  ,  0.0  ,  0.0  ,  0.0  ,  0.101598763903  ,  0.232225746064  ,  0.232225746064  ,  0.232225746064  ,  0.101598763903  ,  0.0  ,  0.0  ,  0.0  ,  0.116112873032  ,  0.232225746064  ,  0.188683418677  ,  0.14514109129  ,  0.217711636935  ,  0.0  ,  0.0  ,  0.0  ,  0.116112873032  ,  0.232225746064  ,  0.029028218258  ,  0.029028218258  ,  0.217711636935  ,  0.043542327387  ,  0.0  ,  0.0  ,  0.072570545645  ,  0.217711636935  ,  0.029028218258  ,  0.0  ,  0.174169309548  ,  0.101598763903  ,  0.0  ,  0.0  ,  0.014514109129  ,  0.217711636935  ,  0.087084654774  ,  0.029028218258  ,  0.232225746064  ,  0.043542327387  ,  0.0  ,  0.0  ,  0.0  ,  0.159655200419  ,  0.217711636935  ,  0.188683418677  ,  0.232225746064  ,  0.0  ,  0.0  ,  0.0  ,  0.0  ,  0.014514109129  ,  0.217711636935  ,  0.203197527806  ,  0.116112873032  ,  0.0  ,  0.0  },
                                {   0.0  ,  0.0  ,  0.0  ,  0.204603157218  ,  0.102301578609  ,  0.0  ,  0.0  ,  0.0  ,  0.0  ,  0.01461451123  ,  0.131530601069  ,  0.233832179678  ,  0.233832179678  ,  0.04384353369  ,  0.0  ,  0.0  ,  0.0  ,  0.058458044919  ,  0.233832179678  ,  0.116916089839  ,  0.160759623529  ,  0.160759623529  ,  0.0  ,  0.0  ,  0.0  ,  0.04384353369  ,  0.233832179678  ,  0.102301578609  ,  0.058458044919  ,  0.233832179678  ,  0.058458044919  ,  0.0  ,  0.0  ,  0.116916089839  ,  0.233832179678  ,  0.058458044919  ,  0.0  ,  0.233832179678  ,  0.116916089839  ,  0.0  ,  0.0  ,  0.073072556149  ,  0.233832179678  ,  0.146145112299  ,  0.0  ,  0.189988645988  ,  0.160759623529  ,  0.0  ,  0.0  ,  0.0  ,  0.189988645988  ,  0.233832179678  ,  0.233832179678  ,  0.233832179678  ,  0.131530601069  ,  0.0  ,  0.0  ,  0.0  ,  0.02922902246  ,  0.146145112299  ,  0.189988645988  ,  0.087687067379  ,  0.0  ,  0.0  },
                        },
                        _y{    1  ,  0  ,  0  ,  1  ,  0  ,  1  ,  0  ,  0  ,  0  ,  0  ,  1  ,  0  ,  0  ,  1  ,  0  ,  0  ,  0  ,  1  ,  0  ,  0  ,  1  ,  1  ,  0  ,  1  ,  0  ,  0  ,  1  ,  0  ,  1  ,  1  ,  1  ,  0  ,  1  ,  0  ,  1  ,  0  ,  1  ,  1  ,  1  ,  1  ,  1  ,  1  ,  1  ,  0  ,  1  ,  1  ,  1  ,  1  ,  1  ,  1  ,  1  ,  1  ,  1  ,  0  ,  0  ,  0  ,  0  ,  0  ,  0  ,  0  ,  0  ,  1  ,  1  ,  1  ,  0  ,  0  ,  1  ,  1  ,  0  ,  0   }

                {}

                template<class Classifier>
                void fit(Classifier *clf) {
                    clf->fit(_x, _y, 70);
                }

            protected:
                float _x[70][64];
                int _y[70];
            };
        }
    }
}